tree
version=v4
num_class=1
num_tree_per_iteration=1
label_index=0
max_feature_idx=9
objective=binary sigmoid:1
feature_names=Column_0 Column_1 Column_2 Column_3 Column_4 Column_5 Column_6 Column_7 Column_8 Column_9
feature_infos=[0.0077911776378446485:0.9924528014190509] [7.4640205274478788e-05:0.9984566107208479] [7.9623263851136272e-05:0.9975220368432397] [0.0015214728950553313:0.99840473775070249] [0.0022286952698743479:0.99917252043214544] [0.00039132915828909987:0.9903425943488342] [0.00013600660232782058:0.99276159979303802] [0.00020662543224270191:0.99950389364168557] [0.0028652803028310636:0.99575940659909878] [0.0027221106044355015:0.99937941778940931]
tree_sizes=1766 1798 1694 1595 1594 1908 1487 1695 1694 1592 1694 1805 1699 1698 1801 1500 1595 1698 1906 1599 1800 1693 1801 1916 1807 1806 1911 1803 1596 1912 1818 1814 1806 1703 1807 1919 1808 1709 1799 1813 1704 1805 1915 1806 1711 1709 1804 1711 2023 1907 1803 1921 1829 1814 1820 1821 1930 1826 1827 1817 1813 1611 1608 1710 1812 1819 1832 1931 1714 1813 1811 1719 1926 1817 1723 1610 1714 1713 1719 1717 1716 1927 1919 1828 1821 1824 1920 1719 1714 1815 1817 1718 1720 1819 1927 1823 1918 1836 1941 1824

Tree=0
num_leaves=16
num_cat=0
split_feature=1 4 9 9 5 8 7 5 2 0 7 3 8 3 5
split_gain=7.24003 7.56434 6.42035 5.11635 4.06356 6.68997 6.2719 6.17717 8.00797 5.70005 5.97326 3.88635 3.29383 2.97738 0.90036
threshold=0.16880857728008383 0.36927569660277004 0.44039935364864602 0.07761264862803309 0.73074166817150144 0.62513528921250849 0.71886102569098587 0.23718263592202152 0.5533327912836955 0.43692272127365711 0.44587045498900996 0.6278959124907717 0.81605042500670166 0.34101230171631713 0.39934146754968614
decision_type=2 2 2 2 2 2 2 2 2 2 2 2 2 2 2
left_child=1 -1 -3 -2 5 7 12 11 13 -6 -11 -5 -7 -9 -10
right_child=3 2 -4 4 9 6 -8 8 14 10 -12 -13 -14 -15 -16
leaf_value=0.16546728876545339 -0.06880008923978076 0.10803254977507927 -0.044028275584681809 0.13233856864350113 -0.064036278921492454 0.19797328858436142 0.0074208758528313268 0.10269708221859637 -0.10405228559511384 0.12175232349174946 -0.017350937802267589 0.015995734425750186 0.0931694615820199 0.0074208758528313268 -0.044028275584681809
leaf_weight=8.4965999424457568 5.247899964451789 6.2474999576807004 4.9979999661445618 6.7472999542951566 8.996399939060213 5.2478999644517916 5.247899964451789 5.2478999644517925 4.99799996614456 5.2478999644517881 7.4969999492168427 4.9979999661445618 6.9971999526023865 8.7464999407529813 4.9979999661445618
leaf_count=34 21 25 20 27 36 21 21 21 20 21 30 20 28 35 20
internal_value=0.0400053 0.0942549 0.04045 0.0266542 0.033336 0.0482152 0.098886 0.0234113 -0.0056796 -0.00309236 0.0399269 0.082831 0.138085 0.0431495 -0.0740403
internal_weight=99.96 19.7421 11.2455 80.2179 74.97 53.2287 17.493 35.7357 23.9904 21.7413 12.7449 11.7453 12.2451 13.9944 9.996
internal_count=400 79 45 321 300 213 70 143 96 87 51 47 49 56 40
is_linear=0
shrinkage=1


Tree=1
num_leaves=16
num_cat=0
split_feature=1 4 9 9 0 2 7 9 1 5 2 6 6 5 4
split_gain=5.88508 6.18316 5.20701 4.14733 3.40127 4.41617 5.1735 7.12989 4.72604 4.59311 5.42821 3.77261 4.16937 2.92747 2.16448
threshold=0.16880857728008383 0.36927569660277004 0.44039935364864602 0.07761264862803309 0.86003120022605584 0.59820479603270404 0.70265616475035919 0.7015806039397835 0.6038510359876702 0.73074166817150144 0.34289729159859883 0.7841506090690703 0.55866757833129899 0.41915652744184717 0.58445633345886228
decision_type=2 2 2 2 2 2 2 2 2 2 2 2 2 2 2
left_child=1 -1 -3 -2 5 9 7 8 -7 11 -11 12 13 -5 -6
right_child=3 2 -4 4 14 6 -8 -9 -10 10 -12 -13 -14 -15 -16
leaf_value=0.11367725482429612 -0.098000490120999664 0.061386006362010775 -0.075634529438929524 -0.00054959494981649242 0.0026901279730716554 -0.12188194147055223 -0.11709909026980914 0.073517496269202412 0.0069931619584000307 -0.12243143155541128 0.016895481588134392 0.10186123798981257 -0.056592310802824668 0.084410838105434483 0.094733886339865583
leaf_weight=8.4420830011367816 5.2437922060489646 6.2317993491888029 4.9975776672363281 9.2295701503753751 5.2380673438310605 6.2330518662929588 7.489571049809455 5.7344924062490454 5.235701858997345 5.2433729469776136 5.9917430281639099 5.4877834171056739 6.7392687052488318 7.2347059845924369 4.9874720126390457
leaf_count=34 21 25 20 37 21 25 30 23 21 21 24 22 27 29 20
internal_value=8.879e-06 0.0490166 0.000405707 -0.0120285 -0.00600508 -0.0144852 -0.0477272 -0.0175256 -0.063048 0.00607358 -0.0481277 0.027298 0.00966336 0.0367836 0.0475842
internal_weight=99.7601 19.6715 11.2294 80.0886 74.8448 64.6193 24.6928 17.2032 11.4688 39.9264 11.2351 28.6913 23.2035 16.4643 10.2255
internal_count=400 79 45 321 300 259 99 69 46 160 45 115 93 66 41
is_linear=0
shrinkage=0.1


Tree=2
num_leaves=15
num_cat=0
split_feature=1 4 9 0 9 9 1 7 8 5 6 1 1 0
split_gain=4.80356 5.09761 4.23446 3.44894 4.29678 4.86136 4.26449 5.07645 7.01335 6.77528 6.02911 4.16955 3.72028 2.60512
threshold=0.16880857728008383 0.36927569660277004 0.44039935364864602 0.86003120022605584 0.10429999446224454 0.15848531757341369 0.8947296257535845 0.36311815436441031 0.29965996797843203 0.27717494780210866 0.48153883502121247 0.66832478015433083 0.54881895503976741 0.48550964896257909
decision_type=2 2 2 2 2 2 2 2 2 2 2 2 2 2
left_child=1 -1 -3 4 -2 -6 7 9 -9 -7 -11 13 -5 -10
right_child=3 2 -4 12 5 6 -8 8 11 10 -12 -13 -14 -15
leaf_value=0.10367078367945448 -0.096861325355397737 0.055494869608117774 -0.068291870098640323 0.092272043646540597 0.08111933190684191 0.10311206312543558 0.05365288091990722 -0.12979524250008481 0.036779731631882071 -0.093831608090684346 0.052597854169566742 -0.084364333976273187 -0.023721361203210292 -0.045101946619364786
leaf_weight=8.336543411016466 6.4613161832094184 6.2053658068180066 4.9821436405181885 6.2089228034019452 5.2265627682209006 5.7181615233421352 6.9665134251117697 8.711647152900694 9.7097084820270592 6.4697255343198758 4.9734381884336472 7.9651260226964942 4.9852052181959152 6.4778138846158972
leaf_count=34 26 25 20 25 21 23 28 35 39 26 20 32 20 26
internal_value=1.33578e-05 0.0444776 0.00036881 -0.0108553 -0.0192444 -0.011184 -0.0196489 -0.0298568 -0.0528764 0.0142261 -0.0301903 -0.0251324 0.0406154 0.00401287
internal_weight=99.3982 19.5241 11.1875 79.8741 68.68 62.2187 56.9921 50.0256 32.8643 17.1613 11.4432 24.1526 11.1941 16.1875
internal_count=400 79 45 321 276 250 229 201 132 69 46 97 45 65
is_linear=0
shrinkage=0.1


Tree=3
num_leaves=14
num_cat=0
split_feature=1 2 2 9 6 4 2 7 3 7 9 7 1
split_gain=3.93172 4.52103 5.31661 3.24159 4.46469 4.88359 3.66885 6.09603 4.41807 9.66214 8.14915 5.4894 2.41901
threshold=0.16880857728008383 0.74053105508056716 0.26578302627528105 0.90677449295678547 0.12243346663353195 0.14673902168442191 0.57503521918094458 0.36311815436441031 0.41064413247214898 0.4656931854388453 0.44039935364864602 0.64736727195587329 0.55743384461104017
decision_type=2 2 2 2 2 2 2 2 2 2 2 2 2
left_child=1 2 -1 4 -2 -6 8 -8 11 -10 -11 -7 -9
right_child=3 -3 -4 -5 5 6 7 12 9 10 -12 -13 -14
leaf_value=-0.0032329295988322935 -0.081661649587994933 -0.039628680745950634 0.12117307768374182 0.049794812493181746 0.079081569251376771 0.095307075502288771 0.020914827263034737 -0.1352041114816048 -0.11261235915996347 0.12438583114697843 -0.043404928808348502 -0.036088808690063701 -0.052272647800297625
leaf_weight=5.8607381880283382 9.1992016136646253 5.1626583635807028 8.3003620356321317 8.1872160285711271 5.956396982073783 8.8838716745376569 8.4169528335332888 5.9238946139812461 7.7081444412469891 5.2320813387632352 6.4786878824234009 4.9517337679862967 8.6574332118034345
leaf_count=24 37 21 34 33 24 36 34 24 31 21 26 20 35
internal_value=1.87246e-05 0.0404809 0.0696862 -0.00980445 -0.0166377 -0.00702228 -0.0161395 -0.0468488 0.00509859 -0.0256679 0.0315598 0.0482808 -0.0859649
internal_weight=98.9194 19.3238 14.1611 79.5956 71.4084 62.2092 56.2528 22.9983 33.2545 19.4189 11.7108 13.8356 14.5813
internal_count=400 79 58 321 288 251 227 93 134 78 47 56 59
is_linear=0
shrinkage=0.1


Tree=4
num_leaves=14
num_cat=0
split_feature=0 0 4 5 3 4 0 5 7 7 2 6 5
split_gain=3.64524 8.98138 7.12658 4.98391 7.55995 5.52784 7.93459 4.87172 5.96873 3.7168 3.6456 2.7668 1.32792
threshold=0.12424180295872096 0.23925047011769293 0.59407445209843457 0.89941599912018833 0.36110623675664766 0.66395342692518222 0.51485429958004503 0.1968762021267936 0.76543868928760717 0.62760884733819899 0.47132193861178995 0.40790620661071425 0.59476926684331199
decision_type=2 2 2 2 2 2 2 2 2 2 2 2 2
left_child=10 2 -2 4 5 6 -3 -6 9 11 -1 -9 -13
right_child=1 3 -4 -5 7 -7 -8 8 -10 -11 -12 12 -14
leaf_value=0.0065354253477957472 0.14888168770164203 0.078096921515023829 0.0061472087807475598 0.062414676015487572 0.018281891201152471 0.087968123930284137 -0.068207957817213435 -0.13187506809919378 0.0078150402501380931 -0.17029014142658722 -0.097484303678216977 -0.075122121181362689 -0.0035119224648749547
leaf_weight=6.4011659920215589 7.3365819156169874 6.1406491696834591 6.6857467442750931 9.0823964029550535 9.1019297391176206 9.1018127948045713 9.3527442067861539 4.9534365534782472 7.9056367874145499 4.9176219701766959 7.1135328561067581 5.4413207620382291 4.94096839427948
leaf_count=26 30 25 27 37 37 37 38 20 32 20 29 22 20
internal_value=2.38287e-05 0.00769731 0.0808269 -0.00675813 -0.0169148 0.026115 -0.0102215 -0.045318 -0.0658756 -0.0946398 -0.0482159 -0.0703815 -0.0410426
internal_weight=98.4755 84.9608 14.0223 70.9385 61.8561 24.5952 15.4934 37.2609 28.159 20.2533 13.5147 15.3357 10.3823
internal_count=400 345 57 288 251 100 63 151 114 82 55 62 42
is_linear=0
shrinkage=0.1


Tree=5
num_leaves=17
num_cat=0
split_feature=1 4 4 0 9 5 9 0 7 9 3 1 6 3 1 1
split_gain=3.20126 3.74442 3.72752 2.99139 3.31088 4.0866 4.28573 4.96446 4.24193 3.62572 4.32789 5.4433 9.03581 3.58905 3.0555 2.06454
threshold=0.16880857728008383 0.36927569660277004 0.73575006738226911 0.86003120022605584 0.10429999446224454 0.91692658711715347 0.90677449295678547 0.53997055849381692 0.36311815436441031 0.19264851349642556 0.53018143827820408 0.78323957399440669 0.50843801774819786 0.72184096998837888 0.54881895503976741 0.54050494984757613
decision_type=2 2 2 2 2 2 2 2 2 2 2 2 2 2 2 2
left_child=1 -1 -3 4 -2 6 7 9 -9 -6 11 12 -11 -12 -5 -10
right_child=3 2 -4 14 5 -7 -8 8 15 10 13 -13 -14 -15 -16 -17
leaf_value=0.08875727625067055 -0.085556036114603884 -0.060280540993504508 0.055936521883944268 0.086563495694706449 0.088220600398224561 -0.094642010812050467 0.076870958339176856 0.0050284798742613983 -0.050560341874146687 -0.10388723068078731 -0.10588533224091029 0.11574128512017259 0.080850743485707866 0.0024052344016839283 -0.018932537801937058 -0.14109761134237706
leaf_weight=8.0289015769958514 6.3368923813104621 5.4093891829252225 5.634466215968132 6.1236585378646833 5.137687385082244 5.1798520982265464 6.162997066974639 6.8783786445856121 4.9281408935785276 5.180394262075426 5.6828369647264463 5.1640463918447486 5.4152672439813614 6.6325586885213852 4.9765928685665131 5.151414766907692
leaf_count=34 26 22 23 25 21 21 25 28 20 21 23 21 22 27 20 21
internal_value=2.37777e-05 0.0367915 -0.000987741 -0.00885849 -0.0167316 -0.00964162 -0.00182589 -0.011493 -0.0555158 0.0109843 -0.00314981 0.031558 -0.00947071 -0.0475645 0.0392663 -0.0968317
internal_weight=98.0235 19.0728 11.0439 78.9507 67.8505 61.5136 56.3337 50.1707 16.9579 33.2128 28.0751 15.7597 10.5957 12.3154 11.1003 10.0796
internal_count=400 79 45 321 276 250 229 204 69 135 114 64 43 50 45 41
is_linear=0
shrinkage=0.1


Tree=6
num_leaves=13
num_cat=0
split_feature=0 0 4 5 3 4 0 5 7 7 2 6
split_gain=3.08887 7.13179 5.85455 4.05684 5.71587 4.40083 5.89827 3.88951 5.2007 3.19702 2.9577 2.31292
threshold=0.12424180295872096 0.23925047011769293 0.59407445209843457 0.89941599912018833 0.36110623675664766 0.66395342692518222 0.51485429958004503 0.1968762021267936 0.73685015407002474 0.60601607969198634 0.47132193861178995 0.40790620661071425
decision_type=2 2 2 2 2 2 2 2 2 2 2 2
left_child=10 2 -2 4 5 6 -3 -6 9 11 -1 -9
right_child=1 3 -4 -5 7 -7 -8 8 -10 -11 -12 -13
leaf_value=0.0048049767834663464 0.13570297739681506 0.066957464591619567 0.0053730803259573858 0.057007064693580412 0.01725369854503718 0.078354193667106567 -0.060004397425862166 -0.11971093204885877 0.0064484714326422084 -0.15780027513434114 -0.089304213141382816 -0.035130523848129931
leaf_weight=6.3643523603677732 7.1460823565721494 6.0456410050392178 6.6580271571874619 8.9704240858554822 9.0220315605401975 8.957694008946417 9.2695426195859891 4.8784253597259584 8.5837575942277891 4.8055039793252936 7.0266658365726471 9.5862912833690626
leaf_count=26 30 25 27 37 37 37 38 20 35 20 29 39
internal_value=2.4249e-05 0.00714092 0.072842 -0.00579339 -0.0150061 0.022678 -0.00988643 -0.0398109 -0.0582944 -0.0871335 -0.0445769 -0.0636564
internal_weight=97.3144 83.9234 13.8041 70.1193 61.1489 24.2729 15.3152 36.876 27.854 19.2702 13.391 14.4647
internal_count=400 345 57 288 251 100 63 151 114 79 55 59
is_linear=0
shrinkage=0.1


Tree=7
num_leaves=15
num_cat=0
split_feature=1 2 2 0 2 1 0 0 9 7 6 1 0 2
split_gain=2.63643 2.97539 4.0071 2.6647 2.88444 2.75047 2.76379 9.22314 4.92517 8.02691 5.07648 3.25971 6.62039 1.22049
threshold=0.16880857728008383 0.74053105508056716 0.26578302627528105 0.86003120022605584 0.4803210902016869 0.88902703254489612 0.12424180295872096 0.23925047011769293 0.65142768409265028 0.58166998091714062 0.40127152779298864 0.5655511621203021 0.59264343566474487 0.54169674822707814
decision_type=2 2 2 2 2 2 2 2 2 2 2 2 2 2
left_child=1 2 -1 5 -5 6 -2 13 10 -10 -9 12 -12 -8
right_child=3 -3 -4 4 -6 -7 7 8 9 -11 11 -13 -14 -15
leaf_value=-0.0049951593032564823 -0.076780658017666925 -0.031535466134779491 0.10466438131772129 -0.014619065899887816 0.087852701947307654 0.040323192150732247 0.037834632923084893 -0.12384189646762651 0.09351635733419604 -0.05158416091690602 -0.14987322031394343 0.023856281691262405 0.012035780098546708 0.10886058562912543
leaf_weight=5.7946091890335101 8.2063609361648542 5.0892843306064597 7.8416825085878372 5.3949598968029004 5.5965956598520279 7.7803452461957923 4.8029296398162824 8.7183387130498904 6.5711767077445975 9.0814156085252744 4.8641281127929705 6.7658139616250983 5.2526540160179138 4.8750200122594833
leaf_count=24 34 21 34 22 23 32 20 36 27 37 20 28 22 20
internal_value=2.22586e-05 0.0337136 0.0580656 -0.00807545 0.0375567 -0.0155707 -0.0229243 -0.0142466 -0.034858 0.00933106 -0.0618755 -0.0298755 -0.0658097 0.0736121
internal_weight=96.6353 18.7256 13.6363 77.9097 10.9916 66.9182 59.1378 50.9315 41.2535 15.6526 25.6009 16.8826 10.1168 9.67795
internal_count=400 79 58 321 45 276 244 210 170 64 106 70 42 40
is_linear=0
shrinkage=0.1


Tree=8
num_leaves=15
num_cat=0
split_feature=2 0 6 0 5 5 2 9 7 9 0 3 4 4
split_gain=2.27323 2.93855 2.9424 3.39586 3.33696 3.55485 2.51216 9.67192 4.36485 2.69139 4.4567 3.21442 4.27036 2.89767
threshold=0.58836701017362281 0.83735533808385332 0.29947078819110634 0.28540542327638369 0.65297566358805348 0.31149894110618387 0.45049385599146469 0.5921267314503782 0.80568071058983182 0.54088881506099262 0.57710917323955757 0.37927341165831618 0.48418563663848524 0.52644067514728621
decision_type=2 2 2 2 2 2 2 2 2 2 2 2 2 2
left_child=6 2 -2 -4 5 -5 8 -8 9 11 -11 13 -13 -1
right_child=1 -3 3 4 -6 -7 7 -9 -10 10 -12 12 -14 -15
leaf_value=-0.05516278952766588 -0.082974347163870907 0.04297266312215936 0.034597076538413256 -0.018822326947942697 0.018738463131594833 -0.1389698870926733 0.11741878147277701 -0.049935001612552245 0.060366150086798402 -0.029660902962057645 0.089225047622811859 -0.012748585757612089 -0.1441236689016358 0.053808041822640242
leaf_weight=4.7650196254253405 8.0811494737863523 6.5087818354368201 9.2232931554317492 5.0656943619251233 5.7288656532764426 4.7922297716140747 8.4600808173418027 5.8352904766798011 9.4796049445867521 7.7910920679569227 5.2969999611377716 4.8184587806463224 5.0856376141309738 5.0015714764595032
leaf_count=20 34 27 39 21 24 20 36 24 39 32 22 20 21 21
internal_value=2.03189e-05 -0.0184189 -0.0305675 -0.0134975 -0.0419569 -0.0772296 0.0128711 0.0491059 0.000607628 -0.0166851 0.0184545 -0.0400655 -0.0802082 0.000642291
internal_weight=95.9338 39.4 32.8912 24.8101 15.5868 9.85792 56.5338 14.2954 42.2384 32.7588 13.0881 19.6707 9.9041 9.76659
internal_count=400 165 138 104 65 41 235 60 175 136 54 82 41 41
is_linear=0
shrinkage=0.1


Tree=9
num_leaves=14
num_cat=0
split_feature=1 3 5 9 5 6 3 7 9 6 1 8 0
split_gain=2.24542 2.48335 4.4027 2.08494 2.3544 2.23076 4.55017 9.83296 4.69552 2.90113 3.13593 3.60129 3.37758
threshold=0.16880857728008383 0.36110623675664766 0.51568286340433689 0.07761264862803309 0.86569214057837018 0.12243346663353195 0.37517496963615193 0.70265616475035919 0.38170927058156451 0.34645189810748978 0.79334547607518491 0.5755775481347456 0.30512078389974878
decision_type=2 2 2 2 2 2 2 2 2 2 2 2 2
left_child=1 -1 -3 -2 5 -5 7 8 -7 -8 11 12 -11
right_child=3 2 -4 4 -6 6 9 -9 -10 10 -12 -13 -14
leaf_value=0.079161327170294712 -0.069946548275314532 -0.064609296772012409 0.059403564610275156 -0.041806740974122993 -0.050566004136859612 0.027310963002796569 0.045308844449950016 -0.067802341633219659 0.13962772231268647 0.01979047135192185 -0.094726123100516244 0.042168078299903267 -0.086185580637864578
leaf_weight=6.8397618234157589 4.9971975535154334 5.2410267144441587 6.3087328225374222 9.1781420856714231 9.1414612233638746 6.672624513506892 7.1126033067703238 5.3515027761459342 8.4178250432014448 5.0753584355115944 5.3842613250017157 8.253463074564932 7.3809551298618317
leaf_count=30 21 22 27 38 38 28 30 22 36 21 22 34 31
internal_value=1.49542e-05 0.0314085 0.00312926 -0.00748597 -0.00314895 0.00375036 0.0115442 0.0486623 0.089964 -0.0113056 -0.0267374 -0.0090612 -0.0430054
internal_weight=95.3549 18.3895 11.5498 76.9654 71.9682 62.8267 53.6486 20.442 15.0904 33.2066 26.094 20.7098 12.4563
internal_count=400 79 49 321 300 262 224 86 64 138 108 86 52
is_linear=0
shrinkage=0.1


Tree=10
num_leaves=15
num_cat=0
split_feature=0 0 4 5 5 2 3 3 2 3 1 0 2 3
split_gain=2.21103 4.4147 4.58615 3.18316 4.03694 7.21966 3.68929 3.07873 3.03401 4.42295 4.9174 3.07123 2.39543 1.78097
threshold=0.12424180295872096 0.23925047011769293 0.59407445209843457 0.84247911793942853 0.24421620221765414 0.36339429396514555 0.32249534602293062 0.66155960034320238 0.191085169830334 0.36110623675664766 0.51789277908476106 0.53997055849381692 0.47132193861178995 0.63603012502376133
decision_type=2 2 2 2 2 2 2 2 2 2 2 2 2 2
left_child=12 2 -2 4 5 -3 -5 -7 -6 11 13 -10 -1 -11
right_child=1 3 -4 6 8 7 -8 -9 9 10 -12 -13 -14 -15
leaf_value=0.0063309136683472877 0.11732046661458591 0.11397390087657913 -0.00023913913563496293 -0.021470535810100239 -0.08950470833228151 0.022597512343173167 0.092577730803767355 -0.08167694368835568 0.092213319290109882 -0.13620953084928025 0.010685015026776856 -0.010914005831646601 -0.079181761076706797 -0.055557091803995345
leaf_weight=6.3101339787244779 6.6811409741640073 6.0813361555337933 6.5931365042924881 4.9661157727241498 7.4087012857198706 6.8709771633148176 6.613882839679718 4.8162557631731033 4.689972937107088 4.9554525613784808 8.1527578681707364 7.5151324421167374 6.8124307245016098 6.1183602213859558
leaf_count=26 30 26 27 21 31 29 28 20 20 21 34 32 29 26
internal_value=3.19444e-05 0.00616834 0.0589304 -0.00410279 -0.0138748 0.0256072 0.0436678 -0.0203735 -0.0319369 -0.0183677 -0.0482554 0.028714 -0.038062 -0.0916485
internal_weight=94.5858 81.4632 13.2743 68.1889 56.6089 17.7686 11.58 11.6872 38.8404 31.4317 19.2266 12.2051 13.1226 11.0738
internal_count=400 345 57 288 239 75 49 49 164 133 81 52 55 47
is_linear=0
shrinkage=0.1


Tree=11
num_leaves=16
num_cat=0
split_feature=1 4 4 0 2 2 6 9 1 8 8 1 4 7 0
split_gain=2.0136 2.1806 3.11228 1.96722 2.58332 3.34077 3.33871 2.95892 2.35125 2.31949 3.27594 2.96591 3.11871 2.64312 2.86135
threshold=0.16880857728008383 0.36927569660277004 0.73575006738226911 0.86003120022605584 0.59820479603270404 0.6823439189526368 0.29947078819110634 0.29423548766853341 0.54881895503976741 0.74962700417193673 0.86689528535647409 0.82312652453362101 0.30800324009809049 0.76543868928760717 0.43692272127365711
decision_type=2 2 2 2 2 2 2 2 2 2 2 2 2 2 2
left_child=1 -1 -3 4 9 -6 -7 -8 -5 11 -11 12 -2 14 -14
right_child=3 2 -4 8 5 6 7 -9 -10 10 -12 -13 13 -15 -16
leaf_value=0.071929205718495176 0.062289297798093418 -0.053539651922452386 0.054393911018235042 0.075320645548074883 -0.10873872887663634 -0.093617546187691913 -0.047093772049623311 0.041319543045548718 -0.018327528244671609 -0.087397846623987085 0.017517665324447595 0.088791260897473703 -0.099370052012523469 0.035660369553158634 0.0038325958209165082
leaf_weight=7.3629991561174419 6.3810550272464814 5.2670736014842969 5.4214135259389877 5.8509665280580503 5.3527168780565288 4.6979072690010097 6.7213917076587668 8.6653274148702604 4.9485303163528442 5.9119351357221586 5.9932672828435898 4.8990582823753348 5.5192615538835543 5.5850187689065924 5.2343513667583466
leaf_count=34 27 22 23 25 23 20 29 37 20 25 25 21 23 23 23
internal_value=3.95402e-05 0.0300534 0.0012064 -0.00711186 -0.0136821 -0.0385395 -0.0198308 0.00269789 0.0324093 0.00231602 -0.0345817 0.018221 0.00300388 -0.0201501 -0.0491359
internal_weight=93.8123 18.0515 10.6885 75.7608 64.9613 25.4373 20.0846 15.3867 10.7995 39.5239 11.9052 27.6187 22.7197 16.3386 10.7536
internal_count=400 79 45 321 276 109 86 66 45 167 50 117 96 69 46
is_linear=0
shrinkage=0.1


Tree=12
num_leaves=15
num_cat=0
split_feature=4 4 1 7 7 8 5 2 6 6 6 0 4 8
split_gain=1.80259 3.22587 3.70313 3.45814 3.18211 4.20044 2.77842 2.62745 2.43226 2.16554 1.99754 3.17947 2.66563 1.92727
threshold=0.73575006738226911 0.36927569660277004 0.12101828932167881 0.26933223260959283 0.38052283017144406 0.48381349186750028 0.79014938691846914 0.24185735235560155 0.53871946459080144 0.59499512954156708 0.66500302650112919 0.55445359622730928 0.22291286911867655 0.35986130003463196
decision_type=2 2 2 2 2 2 2 2 2 2 2 2 2 2
left_child=1 2 -1 -3 5 -2 7 -5 -6 -9 11 12 -4 -12
right_child=4 3 10 6 8 -7 -8 9 -10 -11 13 -13 -14 -15
leaf_value=0.090843380224538986 0.0074145062672678541 -0.085122497658775276 -0.041637445982943305 -0.050942148738045825 0.033602922000338979 0.13261765297027134 -0.068456681832409286 0.063435804352454148 -0.042718248119337637 -0.022136843084017241 -0.019107643051672549 -0.077578594233312051 0.064910554321802885 0.065185233327133579
leaf_weight=5.1945243626832953 5.9564150571823138 8.6805411577224714 4.562570661306383 5.3051716089248719 8.0784805268049258 4.8707167357206345 6.378802850842475 8.2356848418712598 8.6430009305477125 4.6141823530197135 4.5658605843782407 6.5452299267053595 4.8377153873443604 6.6820825934410095
leaf_count=25 25 37 20 22 34 21 27 35 37 20 20 28 21 28
internal_value=3.54616e-05 -0.0089791 0.013477 -0.0308765 0.0215021 0.0637387 -0.0116832 0.00826421 -0.00584597 0.032708 -0.00130158 -0.0240647 0.0131959 0.0309684
internal_weight=93.151 65.6024 32.388 33.2144 27.5486 10.8271 24.5338 18.155 16.7215 12.8499 27.1935 15.9455 9.40029 11.2479
internal_count=400 283 142 141 117 46 104 77 71 55 117 69 41 48
is_linear=0
shrinkage=0.1


Tree=13
num_leaves=15
num_cat=0
split_feature=0 0 3 5 5 2 3 6 0 0 4 3 3 2
split_gain=1.72317 3.89603 4.15923 2.72233 3.21293 5.87557 3.19013 2.65044 4.34761 4.48264 5.40576 2.55343 2.34092 1.89645
threshold=0.12424180295872096 0.23925047011769293 0.67413475987622273 0.84247911793942853 0.24421620221765414 0.36339429396514555 0.32249534602293062 0.14049645568009858 0.33412217390480486 0.47504734864070891 0.73575006738226911 0.6278959124907717 0.44849350887322992 0.47132193861178995
decision_type=2 2 2 2 2 2 2 2 2 2 2 2 2 2
left_child=13 2 -2 4 5 -3 -5 -6 -9 -10 12 -7 -11 -1
right_child=1 3 -4 6 7 11 -8 8 9 10 -12 -13 -14 -15
leaf_value=0.0055649622455021946 0.01347197506588857 0.10365080946967511 0.13180743018277022 -0.020500728947344796 -0.093351670197833969 0.023348813581868917 0.086419296798307899 -0.10828827599526843 0.060998691496810246 -0.10499669516287952 0.051629736341672942 -0.071257544832749639 -0.023597767067506131 -0.071397705830734376
leaf_weight=6.2299759685993177 8.3132880479097349 5.8726083934307125 4.6212843209505072 4.9038889259099943 5.572936236858367 6.3369924724102003 6.4753480106592178 4.6422620862722388 7.7233834117651012 6.7141493856906909 5.9180552512407294 5.1888864785432816 7.4569399952888489 6.5867574214935303
leaf_count=26 37 26 20 21 24 27 28 20 33 29 26 22 32 29
internal_value=4.61375e-05 0.00551643 0.0557511 -0.00420977 -0.0133565 0.0222384 0.040342 -0.0296419 -0.018702 -0.00374891 -0.0286415 -0.0192424 -0.0621639 -0.0339876
internal_weight=92.5568 79.74 12.9346 66.8055 55.4262 17.3985 11.3792 38.0277 32.4548 27.8125 20.0891 11.5259 14.1711 12.8167
internal_count=400 345 57 288 239 75 49 164 140 120 87 49 61 55
is_linear=0
shrinkage=0.1


Tree=14
num_leaves=16
num_cat=0
split_feature=4 7 1 7 9 5 8 8 0 4 5 8 5 1 7
split_gain=1.50609 4.59653 2.13014 1.97632 3.78038 2.27918 2.03692 2.56317 3.59327 3.20273 2.56722 4.16998 2.82534 1.8871 0.897722
threshold=0.84294744892608087 0.38052283017144406 0.49274729301681142 0.83036147041644681 0.50945866045193255 0.11377473087547048 0.9057443574168168 0.2546910427713347 0.86266531312725758 0.14673902168442191 0.63609635129208741 0.62513528921250849 0.80724819724507813 0.39833009887952664 0.56180891239052189
decision_type=2 2 2 2 2 2 2 2 2 2 2 2 2 2 2
left_child=3 -2 -3 5 -5 -1 7 13 9 -9 11 14 -12 -7 -11
right_child=1 2 -4 4 -6 6 -8 8 -10 10 12 -13 -14 -15 -16
leaf_value=0.036963102556494341 0.092654231333338444 0.029994666279032214 -0.064649616560086359 0.082776330031367376 -0.017735446447004085 0.047336850212426451 0.042358826034705602 0.017618483523533027 0.028715287484148446 -0.15820153091782624 0.026528757086188667 -0.020490203168253888 -0.083702599216895102 -0.029787768685328977 -0.098532333732941679
leaf_weight=7.6838315278291693 6.5092654675245312 4.8515958487987501 4.6642522066831589 6.6722509860992423 8.5205084383487684 6.7575438320636732 4.5875918716192237 4.9674831777811077 6.100156992673873 5.7782037556171435 4.6115799993276578 4.9622327387332907 4.689888134598732 5.9801023304462433 4.4734492748975754
leaf_count=34 28 21 20 29 36 30 21 22 26 25 20 22 20 26 20
internal_value=4.6446e-05 0.0278994 -0.0163958 -0.00584321 0.0264066 -0.0139295 -0.0213206 -0.0273663 -0.0411462 -0.055601 -0.0704372 -0.09574 -0.0290509 0.0111282 -0.132164
internal_weight=91.8099 16.0251 9.51585 75.7848 15.1928 60.5921 52.9082 48.3206 35.583 29.4828 24.5154 15.2139 9.30147 12.7376 10.2517
internal_count=400 69 41 331 65 266 232 211 155 129 107 67 40 56 45
is_linear=0
shrinkage=0.1


Tree=15
num_leaves=13
num_cat=0
split_feature=0 0 4 5 3 7 3 4 0 5 7 5
split_gain=1.28325 3.34427 3.64444 2.17478 2.54373 2.93257 3.11685 2.65567 3.57726 1.71292 1.62498 3.18403
threshold=0.12424180295872096 0.23925047011769293 0.59407445209843457 0.89941599912018833 0.36110623675664766 0.83036147041644681 0.48295636208560844 0.66395342692518222 0.51485429958004503 0.41915652744184717 0.2262683150359934 0.37254524173058273
decision_type=2 2 2 2 2 2 2 2 2 2 2 2
left_child=9 2 -2 4 7 6 -6 8 -3 -1 -8 -12
right_child=1 3 -4 -5 5 -7 10 -9 -10 -11 11 -13
leaf_value=-0.077849961002958087 0.10654061116039318 0.052117322535698209 -0.00064189511728966623 0.043167772178349044 -0.11684847467380639 0.031711162429619209 0.018056314458754458 0.060513438203886195 -0.050414036874097234 -0.001510806495841727 -0.0015134642453401457 -0.086294569440040519
leaf_weight=4.6431528180837622 6.2100220173597318 5.5359818041324642 6.4854042530059814 8.430142328143118 4.6646735519170788 6.6368361562490454 5.9003285914659527 8.1656919270753843 8.8309211283922178 8.0097243636846525 9.1572718024253863 8.5804518461227399
leaf_count=20 30 25 27 37 21 28 25 37 38 35 39 38
internal_value=3.15975e-05 0.00478963 0.0517869 -0.00426393 -0.0112213 -0.0281161 -0.0421453 0.0149762 -0.0109057 -0.0295245 -0.0274036 -0.0425255
internal_weight=91.2506 78.5977 12.6954 65.9023 57.4722 34.9396 28.3027 22.5326 14.3669 12.6529 23.6381 17.7377
internal_count=400 345 57 288 251 151 123 100 63 55 102 77
is_linear=0
shrinkage=0.1


Tree=16
num_leaves=14
num_cat=0
split_feature=1 8 3 1 4 6 5 0 5 7 0 8 1
split_gain=1.30886 1.82173 1.95822 1.68826 2.24394 3.3804 3.4024 3.50409 2.59817 3.32331 2.71508 2.41993 1.66305
threshold=0.16880857728008383 0.24725195500117 0.36110623675664766 0.23950481491006129 0.63596094812058379 0.34645189810748978 0.28430526378266413 0.4145183693182054 0.48448848897661145 0.80978751716068043 0.35609937388002227 0.43552993001689705 0.58289730880118407
decision_type=2 2 2 2 2 2 2 2 2 2 2 2 2
left_child=1 -1 -3 -2 8 -6 -7 -8 10 11 -5 -10 -12
right_child=3 2 -4 4 5 6 7 -9 9 -11 12 -13 -14
leaf_value=0.069211991616529078 -0.048571499407100344 0.056033559347928835 -0.030844641008199437 0.057559901229662924 0.078649798338672194 0.059665432239939767 -0.095915045876550337 0.015308437407805235 -0.013581827720979951 0.01761098932896691 0.023229488762095851 -0.099275700900978037 -0.054139214687883741
leaf_weight=6.0187853872776058 8.1957187056541425 4.0936736166477186 7.0840248167514801 7.6716232597827938 7.6070532947778728 6.0375435948371914 5.0073680281639081 6.5219011157751083 5.2618757635355022 6.865062788128852 5.0183655172586423 8.8175627440214139 6.2239753603935242
leaf_count=27 36 20 32 35 33 26 22 29 23 29 22 39 27
internal_value=2.99969e-05 0.0248569 0.000973268 -0.00580022 -0.000409953 0.0229637 -0.00115042 -0.0329979 -0.0151723 -0.0394345 0.0116946 -0.0672495 -0.0196033
internal_weight=90.4245 17.1965 11.1777 73.2281 65.0323 25.1739 17.5668 11.5293 39.8585 20.9445 18.914 14.0794 11.2423
internal_count=400 79 52 321 285 110 77 51 175 91 84 62 49
is_linear=0
shrinkage=0.1


Tree=17
num_leaves=15
num_cat=0
split_feature=4 6 2 4 7 6 8 8 0 0 4 4 1 5
split_gain=1.26214 2.27978 1.83851 2.54124 3.31037 4.4497 2.49799 3.26085 2.84027 2.05965 2.66278 2.9282 3.31173 4.27855
threshold=0.14673902168442191 0.48153883502121247 0.74053105508056716 0.73575006738226911 0.30834045616956551 0.69088611230826424 0.24142114166639903 0.46000832161035943 0.51485429958004503 0.85688215082529873 0.56627520659810748 0.25573095113642447 0.66832478015433083 0.63210763432014361
decision_type=2 2 2 2 2 2 2 2 2 2 2 2 2 2
left_child=1 -1 3 9 -5 -6 -4 -8 -9 10 11 -2 13 -13
right_child=2 -3 6 4 5 -7 7 8 -10 -11 -12 12 -14 -15
leaf_value=-0.018419181699218332 -0.064948124094409254 0.080212989080109903 0.023614091366515769 0.092694366931376962 0.051715716025172456 -0.068558224703297824 -0.12620788920426365 0.035307826077757253 -0.075036797548055215 0.04493701556751227 -0.069222179932774269 -0.0048263991308857782 -0.041301465985244562 0.1069159445764522
leaf_weight=4.3563232719898206 6.0855294317007091 5.0717799812555313 5.9061971455812481 6.483326047658923 7.9500552415847761 5.0172827541828156 4.3074082583189002 4.5692981928586942 4.7655813246965408 5.9561389982700339 8.0392776876687986 8.1848162263631838 7.2318888902664176 5.894198313355445
leaf_count=20 29 23 26 29 35 22 20 20 21 25 35 37 32 26
internal_value=2.44933e-05 0.0346393 -0.00403506 0.00453694 0.0343502 0.00517969 -0.0307145 -0.0542351 -0.0210246 -0.00947278 -0.0186181 -0.00376877 0.0137016 0.0419547
internal_weight=89.8191 9.4281 80.391 60.8425 19.4507 12.9673 19.5485 13.6423 9.33488 41.3918 35.4357 27.3964 21.3109 14.079
internal_count=400 43 357 270 86 57 87 61 41 184 159 124 95 63
is_linear=0
shrinkage=0.1


Tree=18
num_leaves=17
num_cat=0
split_feature=7 0 1 6 5 7 1 1 4 1 4 9 1 7 8 7
split_gain=1.3622 1.71326 2.17594 2.22409 2.89099 2.14316 2.22286 3.48466 3.9731 3.19651 2.16178 2.38699 5.41391 2.65127 1.9472 1.48909
threshold=0.047869003610584777 0.086449247153459377 0.16880857728008383 0.25366534890782583 0.59476926684331199 0.58166998091714062 0.77002796643817695 0.66832478015433083 0.4872953674731868 0.36371118587370832 0.84294744892608087 0.35473852382776988 0.51789277908476106 0.28983564196848943 0.6539790881999098 0.7534819811971768
decision_type=2 2 2 2 2 2 2 2 2 2 2 2 2 2 2 2
left_child=-1 -2 3 -3 -5 10 7 8 15 -10 11 14 13 -13 -4 -7
right_child=1 2 5 4 -6 6 -8 -9 9 -11 -12 12 -14 -15 -16 -17
leaf_value=-0.055525108434090392 -0.040082771419282515 0.10444565575788978 -0.083367863697186101 -0.038503411260892087 0.076633448224429468 -0.008733995725369521 0.027022899093586711 -0.10663178681773522 -0.11450824241863011 0.00059480154654911418 0.076937721715997498 0.026427873673156167 -0.031038035266280885 0.13338975726769395 0.0083384715082358077 0.073840400064501113
leaf_weight=4.2063203901052466 8.4038299620151502 4.2194953113794318 4.3239307850599342 4.6025799661874753 4.1446250379085541 4.1198666691780179 7.974439099431037 5.1659063547849646 4.9104497730731946 4.7432266920804977 5.2267705649137488 4.5655760169029254 8.1407049596309644 4.7060388773679733 4.9842126816511154 4.6474174857139587
leaf_count=19 37 20 20 22 20 20 34 23 21 20 24 21 36 21 22 20
internal_value=2.25613e-05 0.00277532 0.00748497 0.0448156 0.0160511 -0.000136907 -0.018619 -0.0340499 -0.0136953 -0.0579536 0.0181219 0.00661696 0.0284697 0.080719 -0.0342621 0.0350376
internal_weight=89.0854 84.8791 76.4752 12.9667 8.74721 63.5085 31.5613 23.5869 18.421 9.65368 31.9472 26.7205 17.4123 9.27161 9.30814 8.76728
internal_count=400 381 344 62 42 282 138 104 81 41 144 120 78 42 42 40
is_linear=0
shrinkage=0.1


Tree=19
num_leaves=14
num_cat=0
split_feature=7 0 0 5 5 0 8 9 2 0 0 1 1
split_gain=1.1059 1.39655 1.79521 3.15661 2.0519 2.20262 1.88005 3.38521 3.41262 2.3344 3.03595 5.1035 4.72784
threshold=0.047869003610584777 0.086449247153459377 0.23925047011769293 0.37911306945945461 0.84247911793942853 0.52992367836278442 0.13766949750765942 0.90677449295678547 0.87643224223461569 0.8837729554277628 0.53997055849381692 0.45684732911687204 0.45684732911687204
decision_type=2 2 2 2 2 2 2 2 2 2 2 2 2
left_child=-1 -2 3 -3 6 -6 -4 8 9 10 12 -12 -8
right_child=1 2 4 -5 5 -7 7 -9 -10 -11 11 -13 -14
leaf_value=-0.050050229378231441 -0.036242835897507757 -0.017254628594478592 0.046811447277445309 0.078430550144608466 -0.01456551591312762 0.078131977550092491 -0.0489468048217023 0.067780677835132613 -0.10869816845460689 0.052325613270598682 0.00018106080654190195 -0.11096161993852825 0.060577139565689331
leaf_weight=4.2000998705625525 8.3667970299720746 5.8808879405260077 5.4160418361425391 8.3330079168081266 4.3902745395898801 6.159858763217926 7.670299604535102 4.4081901311874381 4.3028263747692099 4.5677510648965827 8.4768185466527957 8.0596617758274061 8.1071791499853116
leaf_count=19 37 28 24 38 20 28 35 20 20 20 38 37 36
internal_value=2.82029e-05 0.00252803 0.00680909 0.0388416 -0.000587178 0.0395574 -0.00889026 -0.0155072 -0.0244219 -0.0145897 -0.0240486 -0.0539884 0.00733153
internal_weight=88.3397 84.1396 75.7728 14.2139 61.5589 10.5501 51.0088 45.5927 41.1845 36.8817 32.314 16.5365 15.7775
internal_count=400 381 344 66 278 48 230 206 186 166 146 75 71
is_linear=0
shrinkage=0.1


Tree=20
num_leaves=16
num_cat=0
split_feature=4 6 2 2 4 3 7 9 0 2 2 0 9 2 9
split_gain=0.961185 1.90755 1.3707 3.5588 2.13609 2.86619 3.8065 3.44644 2.48171 2.21403 3.29976 2.24596 2.48576 1.47857 1.30259
threshold=0.14673902168442191 0.48153883502121247 0.83823081895430962 0.93522947646263155 0.73575006738226911 0.72892009522624801 0.40699428574404545 0.55643096189699703 0.85688215082529873 0.57503521918094458 0.27456153639935643 0.48550964896257909 0.47331996493759293 0.6823439189526368 0.66665918431597215
decision_type=2 2 2 2 2 2 2 2 2 2 2 2 2 2 2
left_child=1 -1 4 -4 8 6 -6 -8 9 10 14 12 -12 -11 -2
right_child=2 -3 3 -5 5 -7 7 -9 -10 13 11 -13 -14 -15 -16
leaf_value=-0.018536599910642628 -0.068802041914329287 0.073104967980317154 -0.083795244999350399 0.029462812387834422 0.11899244089152727 -0.028554461169767981 0.071776018675876116 -0.043309709749216871 0.045024187804917737 -0.10279150400635007 0.11618027372714086 -0.020663631869054126 0.0083408171455330582 -0.027370411380625917 -0.0048958853104926143
leaf_weight=4.2264443784952146 7.5781582444906253 4.9102721065282822 6.5318859815597516 4.8228587210178375 5.3329069316387203 6.520002305507659 5.2836695760488492 5.1271792501211166 6.785519763827323 4.5105827599763852 4.1057795956730825 5.773037537932395 4.4587129354476929 6.134271115064621 5.5074907541275024
leaf_count=20 34 23 30 22 26 29 24 22 29 22 20 26 20 29 24
internal_value=1.68538e-05 0.0307136 -0.00355725 -0.0356896 0.00187882 0.0272005 0.0502904 0.0150981 -0.01069 -0.0206209 -0.00559559 0.0275437 0.0600386 -0.0593289 -0.0419052
internal_weight=87.6088 9.13672 78.4721 11.3547 67.1173 22.2638 15.7438 10.4108 44.8536 38.068 27.4232 14.3375 8.56449 10.6449 13.0856
internal_count=400 43 357 52 305 101 72 46 204 175 124 66 40 51 58
is_linear=0
shrinkage=0.1


Tree=21
num_leaves=15
num_cat=0
split_feature=6 6 1 7 5 1 5 6 4 6 8 9 8 9
split_gain=0.981103 3.2854 1.38907 1.91774 1.37 1.35808 1.75124 3.97873 3.49977 3.06412 4.28323 3.32436 2.70005 2.91941
threshold=0.88805681592044705 0.94339267994959275 0.16880857728008383 0.71001281676858341 0.64216858406440758 0.25865694417899765 0.44749493351843173 0.29102203590821785 0.48418563663848524 0.29947078819110634 0.71686676532092997 0.51433906127770823 0.59529243173699253 0.41510847763315017
decision_type=2 2 2 2 2 2 2 2 2 2 2 2 2 2
left_child=2 -2 3 4 -1 -4 9 8 -8 -7 11 -11 13 -9
right_child=1 -3 5 -5 -6 6 7 12 -10 10 -12 -13 -14 -15
leaf_value=-0.028552982474428997 -0.083093082881846025 0.031938403724246264 -0.041493026923269644 0.085146864163627239 0.046792972621480557 -0.02953568636534078 -0.021600894066765089 0.049212170187356491 0.096986210849559662 0.063398311067060301 0.12812812771088894 -0.03754532452776449 -0.086140871862913609 -0.053253108537508913
leaf_weight=5.150533974170683 5.3259668499231321 4.6511755138635635 7.8379245400428763 4.6018652766942969 4.5407616049051285 7.9466332495212582 4.9974295794963854 4.8509965091943759 4.9573555141687393 6.9533449262380618 4.6081056445837012 6.1463615298271179 7.7254580110311499 6.515111967921257
leaf_count=24 24 21 36 23 22 37 23 23 22 32 21 28 35 29
internal_value=3.40562e-05 -0.0294673 0.00386501 0.0319906 0.00674963 -0.00256306 0.0030151 -0.0138005 0.037454 0.022054 0.0452055 0.0160357 -0.0405257 -0.00952146
internal_weight=86.809 9.97714 76.8319 14.2932 9.6913 62.5387 54.7008 29.0464 9.95479 25.6544 17.7078 13.0997 19.0916 11.3661
internal_count=400 45 355 69 46 286 250 132 45 118 81 60 87 52
is_linear=0
shrinkage=0.1


Tree=22
num_leaves=16
num_cat=0
split_feature=7 0 1 6 4 2 2 8 3 6 4 2 6 5 4
split_gain=1.00275 1.10436 1.66015 1.94939 2.54218 2.94567 2.64439 2.54927 4.69607 2.52047 2.30382 2.60665 1.77674 2.37353 1.65998
threshold=0.047869003610584777 0.086449247153459377 0.16880857728008383 0.12580785110920698 0.14673902168442191 0.57503521918094458 0.6823439189526368 0.45358770225084882 0.57348243116923325 0.28399444950599972 0.44497698287176135 0.8450232539972885 0.25366534890782583 0.59476926684331199 0.56627520659810748
decision_type=2 2 2 2 2 2 2 2 2 2 2 2 2 2 2
left_child=-1 -2 12 -4 -5 7 -7 8 -6 -9 -8 -12 -3 -14 -11
right_child=1 2 3 4 5 6 10 9 -10 14 11 -13 13 -15 -16
leaf_value=-0.04799939315805158 -0.032398513172789856 0.09412269664222267 -0.04670268741050429 0.074043449752697554 0.033774463399978187 -0.096769370092375448 -0.061128188689292332 0.11188144005697037 -0.093436757970261602 0.054980132182609102 0.066726330903299852 -0.037255522372125788 -0.036318342814495849 0.069960397233974375 -0.02050636925473005
leaf_weight=4.1360878199338904 8.1806078255176526 4.03887765854597 7.9296396225690833 5.0368077158927909 7.6967049241065997 4.581808656454089 5.6249583959579459 4.2863944768905666 4.6581959426403046 6.7550214082002622 5.284175291657446 4.4336176961660385 4.4853858649730665 3.9535851627588272 5.1221155077219009
leaf_count=19 37 20 36 23 35 22 27 20 21 30 24 20 22 20 24
internal_value=4.29738e-05 0.00246423 0.00632414 -0.000432652 0.00642797 -0.000602276 -0.0301038 0.0200091 -0.0141883 0.0461486 -0.0101955 0.019286 0.0395775 0.0134723 0.0224259
internal_weight=86.204 82.0679 73.8873 61.4094 53.4798 48.443 19.9246 28.5184 12.3549 16.1635 15.3428 9.71779 12.4778 8.43897 11.8771
internal_count=400 381 344 282 246 223 93 130 56 74 71 44 62 42 54
is_linear=0
shrinkage=0.1


Tree=23
num_leaves=17
num_cat=0
split_feature=7 0 1 9 6 4 6 4 0 2 0 5 9 5 6 4
split_gain=0.815133 0.900624 1.36994 2.09073 1.84027 1.51262 3.1197 2.3666 2.10779 2.94931 3.36733 2.93863 2.93159 1.55962 1.50202 2.00078
threshold=0.047869003610584777 0.086449247153459377 0.16880857728008383 0.070509602315671008 0.093999770755989989 0.22291286911867655 0.19952447298140466 0.28564881570905509 0.33412217390480486 0.51068696218390996 0.68658163473048339 0.66769937177653649 0.55643096189699703 0.42153766305424273 0.25366534890782583 0.47660204998153738
decision_type=2 2 2 2 2 2 2 2 2 2 2 2 2 2 2 2
left_child=-1 -2 14 -4 -5 13 -7 -8 12 10 -10 -11 -9 -6 -3 -16
right_child=1 2 3 4 5 6 7 8 9 11 -12 -13 -14 -15 15 -17
leaf_value=-0.043319606958422845 -0.02930010154273522 0.087197880301251973 -0.074106702178771286 -0.046880998568343844 0.089127195418703356 0.085375864885971736 -0.076863051016434203 0.012646706915779279 0.11808483292653148 -0.07063145616222502 0.0062720383139866333 0.036911388680186709 -0.083840152931662082 0.005013027815269743 0.063616813497725522 -0.034265498882996064
leaf_weight=4.1251908242702475 8.1431610435247404 3.9294885098934165 3.61907935142517 6.2643518894910803 4.5307265222072584 4.1152526736259452 4.2230646014213553 7.2195922136306745 5.0432832539081591 5.0610931366682035 5.7805791348218918 5.1025413572788239 5.5849331021308899 4.2930833548307419 3.9798810333013517 4.3937526494264603
leaf_count=19 37 20 17 28 21 19 20 35 23 23 28 23 25 20 22 20
internal_value=4.57003e-05 0.00224651 0.00575877 -0.000395742 0.00426649 0.0105546 0.00266954 -0.00628367 0.00253679 0.0220446 0.0583702 -0.0166407 -0.0294378 0.0482028 0.0361921 0.0122567
internal_weight=85.4091 81.2839 73.1407 60.8376 57.2185 50.9541 42.1303 38.0151 33.792 20.9875 10.8239 10.1636 12.8045 8.82381 12.3031 8.37363
internal_count=400 381 344 282 265 237 196 177 157 97 51 46 60 41 62 42
is_linear=0
shrinkage=0.1


Tree=24
num_leaves=16
num_cat=0
split_feature=6 6 4 1 4 2 0 2 1 1 4 4 0 0 9
split_gain=0.881295 1.68582 2.23067 2.71514 1.96729 1.80384 2.66689 2.42459 2.5599 2.98003 1.90545 3.10165 1.45464 1.04359 0.670784
threshold=0.07935577446405874 0.12243346663353195 0.21776445843208189 0.49656649612063464 0.27435385038889354 0.83823081895430962 0.12424180295872096 0.21718649002292825 0.64929852993301196 0.77002796643817695 0.54008917023517755 0.84294744892608087 0.56597231661719405 0.41848761365794246 0.49777611201531141
decision_type=2 2 2 2 2 2 2 2 2 2 2 2 2 2 2
left_child=-1 -2 3 -3 -4 6 -6 13 10 -10 14 12 -12 -8 -9
right_child=1 2 4 -5 5 -7 7 8 9 -11 11 -13 -14 -15 -16
leaf_value=0.0364611684451197 -0.063278043099274192 0.091045823585565677 -0.068504942119608156 -0.0068653037359859229 -0.04762766855368053 -0.044229125752799053 -0.066413485416543891 0.055437920201039659 -0.073991517749862332 0.03368516219476643 -0.047706155129750037 0.091678428244096707 0.032696022340166241 0.0017215875981834554 0.11179959912028975
leaf_weight=6.1645320057868949 4.3541912436485282 5.606463670730589 4.7492630854248992 5.7236656695604324 7.875770464539527 8.4611455500125867 4.2074355036020261 4.0101915001869219 4.4689516723155958 6.0496321022510529 4.715881332755087 4.583941936492919 4.303748831152916 4.8269230127334595 4.4601704105734825
leaf_count=28 21 29 23 27 36 39 19 20 21 28 22 22 21 23 21
internal_value=5.50763e-05 -0.0028076 0.000748428 0.0415839 -0.00662915 -0.00155936 0.00573389 0.0158299 0.0285362 -0.0120626 0.0478822 0.0246985 -0.00934197 -0.0300099 0.0851158
internal_weight=84.5619 78.3974 74.0432 11.3301 62.7131 57.9638 49.5026 41.6269 32.5925 10.5186 22.0739 13.6036 9.01963 9.03436 8.47036
internal_count=400 372 351 56 295 272 233 197 155 49 106 65 43 42 41
is_linear=0
shrinkage=0.1


Tree=25
num_leaves=16
num_cat=0
split_feature=3 4 9 9 7 9 9 7 4 6 0 9 1 0 8
split_gain=0.834461 1.47199 1.33707 1.80795 3.86698 3.65073 3.19082 2.68102 2.46947 3.09491 2.27461 2.20299 1.98799 1.61067 1.71554
threshold=0.036553139259122576 0.079343284400363159 0.048326776982070503 0.23081510849339573 0.76543868928760717 0.32063990929155989 0.44039935364864602 0.40184701412122015 0.64139520449538934 0.53871946459080144 0.23925047011769293 0.52764520480582633 0.8425912664196733 0.5348094391389433 0.41893200754601173
decision_type=2 2 2 2 2 2 2 2 2 2 2 2 2 2 2
left_child=-1 -2 -3 4 10 -5 7 -7 11 -10 -4 -8 13 14 -13
right_child=1 2 3 5 -6 6 8 -9 9 -11 -12 12 -14 -15 -16
leaf_value=-0.045033399647700229 0.059332700808216288 -0.069374081016235489 0.051774549158809059 -0.080287848315387211 0.10579491514311179 -0.0050140724645490395 -0.085267914929043606 0.10125196246459692 0.071420380900376335 -0.021826300420291347 -0.037427167457918041 -0.067934492588694717 -0.073518301835757707 0.0435849700553134 0.01362766948385865
leaf_weight=3.9115425348281851 4.2787917777895919 2.752481795847415 4.8924581557512301 6.0544437468051902 4.845760151743888 4.293610066175459 5.4271832704544094 5.3107652515172958 6.8793026357889158 7.3757196366786957 6.8766596764326096 4.519716486334806 4.3964584469795218 5.9823488667607299 6.0053194016218185
leaf_count=19 22 14 24 29 23 21 26 26 32 35 33 20 20 28 28
internal_value=6.37813e-05 0.00227178 -0.000957215 0.00162742 0.0306104 -0.00693421 0.00191439 0.053746 -0.0103512 0.0231734 -0.000345742 -0.0285006 -0.0137623 0.00215263 -0.0213972
internal_weight=83.8026 79.891 75.6122 72.8597 16.6149 56.2449 50.1904 9.60438 40.586 14.255 11.7691 26.331 20.9038 16.5074 10.525
internal_count=400 381 359 345 80 265 236 47 189 67 57 122 96 76 48
is_linear=0
shrinkage=0.1


Tree=26
num_leaves=17
num_cat=0
split_feature=4 7 8 4 4 8 9 8 9 0 6 3 7 5 2 2
split_gain=0.767874 2.55978 1.48991 1.34111 2.08332 1.37752 2.68955 2.17679 1.65455 2.5034 2.24535 3.27967 3.22361 1.8671 1.48406 1.08922
threshold=0.84294744892608087 0.38052283017144406 0.48832870189918581 0.7922712533946189 0.73575006738226911 0.2546910427713347 0.74067992036031338 0.31391298866566592 0.34476193950002249 0.23925047011769293 0.43698058320165867 0.39991829535823797 0.34381741421850204 0.64216858406440758 0.46000864135606467 0.69544993584662695
decision_type=2 2 2 2 2 2 2 2 2 2 2 2 2 2 2 2
left_child=3 -2 -3 4 5 6 15 -7 9 -9 12 -12 -10 -13 -11 -1
right_child=1 2 -4 -5 -6 7 -8 8 10 14 11 13 -14 -15 -16 -17
leaf_value=0.02243771704748759 0.071650257466894018 0.027713793167001684 -0.05546403884254051 -0.051318561054499723 0.065584336686117309 -0.078617391693653851 -0.042872874451564839 0.026434195034789755 -0.095564878870244382 -0.10747033037361059 0.10107546238621722 0.045946768297790423 0.016345796238787843 -0.046134966970409953 -0.028434530372969682 0.089181999529066719
leaf_weight=5.8885090723633748 5.9083987623453131 4.3133801966905576 4.3006449937820435 5.5854026451706877 4.4734126627445212 4.6663698554038993 4.4956323951482764 4.7112730517983428 4.0346017926931399 4.1687402278184873 4.9776163697242728 4.3680891096591932 7.109702467918396 4.4405729547142982 5.5237704962491989 4.181143194437027
leaf_count=29 28 21 20 27 21 22 20 25 20 20 24 20 34 21 28 20
internal_value=6.68746e-05 0.0209571 -0.0138136 -0.00435392 -0.000192768 -0.00521698 0.0214391 -0.0140408 -0.00637983 -0.0333623 0.00920942 0.0361917 -0.0241695 -0.000472956 -0.0624278 0.0501514
internal_weight=83.1473 14.5224 8.61403 68.6248 63.0394 58.566 14.5653 44.0007 39.3344 14.4038 24.9306 13.7863 11.1443 8.80866 9.69251 10.0697
internal_count=400 69 41 331 304 283 69 214 192 73 119 65 54 41 48 49
is_linear=0
shrinkage=0.1


Tree=27
num_leaves=16
num_cat=0
split_feature=2 5 5 8 2 7 2 5 0 6 1 7 0 1 9
split_gain=0.834657 0.952736 4.34417 3.09676 3.25175 2.63995 5.17826 3.92162 2.48422 3.64359 2.26336 2.17353 2.34902 2.11187 2.38064
threshold=0.047204653221625044 0.73074166817150144 0.6783056936750913 0.62513528921250849 0.1563219559863783 0.71001281676858341 0.4803210902016869 0.11377473087547048 0.4145183693182054 0.60166273607202703 0.42076421630531574 0.71886102569098587 0.51485429958004503 0.55743384461104017 0.38170927058156451
decision_type=2 2 2 2 2 2 2 2 2 2 2 2 2 2 2
left_child=-1 2 3 4 -2 7 -7 -6 10 -10 -3 12 -5 14 -9
right_child=1 8 -4 11 5 6 -8 13 9 -11 -12 -13 -14 -15 -16
leaf_value=0.054895769132990768 -0.10110871660492449 -0.0048054300318408055 0.092897690464202057 0.10851096010734036 0.046925549327849099 0.11806790144342361 -0.021952820703230687 -0.142640531220844 -0.040358264222018048 0.061251711147307347 -0.10646996605177719 -0.021219326787314273 0.015539251945875977 -0.004726011126592585 -0.042476369987316298
leaf_weight=2.6860002428293219 4.3345910757780066 3.9943692237138766 5.1350037902593604 5.0070708245039004 4.9308760166168275 4.193599730730055 7.1347415819764137 3.995057746767996 7.5722985565662366 6.6092738658189774 4.8473096042871475 5.0561234876513472 5.9433644488453865 5.2749283313751212 5.8436680510640144
leaf_count=13 19 20 24 26 23 19 36 20 37 33 23 23 30 25 29
internal_value=6.56938e-05 -0.00177817 0.00517224 -0.00353857 -0.0199225 -0.00870556 0.029881 -0.0305131 -0.0189401 0.00699672 -0.0605414 0.0330108 0.0580504 -0.0557777 -0.0831485
internal_weight=82.5583 79.8723 56.849 51.714 35.7075 31.3729 11.3283 20.0445 23.0233 14.1816 8.84168 16.0066 10.9504 15.1137 9.83873
internal_count=400 387 274 250 171 152 55 97 113 70 43 79 56 74 49
is_linear=0
shrinkage=0.1


Tree=28
num_leaves=14
num_cat=0
split_feature=6 6 4 1 4 4 2 2 7 4 3 6 4
split_gain=0.796859 1.27893 1.73452 2.18289 1.59713 1.62709 2.03716 1.69465 2.11908 2.41005 3.25144 3.26175 1.34109
threshold=0.07935577446405874 0.12243346663353195 0.21776445843208189 0.49656649612063464 0.27435385038889354 0.30066714953317353 0.191085169830334 0.83823081895430962 0.87417024239996344 0.4228088922530886 0.37927341165831618 0.5783149426824673 0.67108617243814717
decision_type=2 2 2 2 2 2 2 2 2 2 2 2 2
left_child=-1 -2 3 -3 -4 -6 -7 8 9 -8 12 -12 -11
right_child=1 2 4 -5 5 6 7 -9 -10 10 11 -13 -14
leaf_value=0.035222371854763561 -0.055921860996218702 0.083674558904592633 -0.062704730508742715 -0.0061971391813420698 0.065321539006114662 -0.05240497272590864 -0.038331053284058038 -0.039102329413633244 -0.038604709167076444 0.045743303919806057 0.057238904017440431 -0.035025233096288445 0.12231348584989343
leaf_weight=5.9735969901084891 4.2632082998752585 5.2421980425715429 4.6091605126857749 5.5787754356861115 3.4247352778911582 7.9642079919576636 5.2535261213779476 8.0320172756910306 6.833714857697486 4.6387731730937976 7.212882086634635 8.1736983358859998 4.5124772936105728
leaf_count=28 21 29 23 27 18 37 27 38 32 23 35 39 23
internal_value=5.91907e-05 -0.00271414 0.000459439 0.037341 -0.00612029 -0.00146685 -0.00581362 0.00249555 0.0116181 0.0231385 0.0362991 0.00822611 0.0835
internal_weight=81.713 75.7394 71.4762 10.821 60.6552 56.046 52.6213 44.6571 36.6251 29.7914 24.5378 15.3866 9.15125
internal_count=400 372 351 56 295 272 254 217 179 147 120 74 46
is_linear=0
shrinkage=0.1


Tree=29
num_leaves=17
num_cat=0
split_feature=2 2 0 0 0 1 5 9 6 9 8 9 1 0 0 0
split_gain=0.72915 1.60689 1.71756 2.04476 1.82276 2.64542 1.97045 1.55432 1.32185 1.50532 4.71369 2.28331 2.14808 2.85526 1.72363 4.53866
threshold=0.94713665497711963 0.83823081895430962 0.029261716211782644 0.053852518781785493 0.086449247153459377 0.16327952204883803 0.64216858406440758 0.070509602315671008 0.093999770755989989 0.74067992036031338 0.49073719897959051 0.65142768409265028 0.5655511621203021 0.53997055849381692 0.30512078389974878 0.59264343566474487
decision_type=2 2 2 2 2 2 2 2 2 2 2 2 2 2 2 2
left_child=1 2 -1 -4 -5 6 -6 -7 -9 11 -11 12 14 -14 -10 -16
right_child=-2 -3 3 4 5 7 -8 8 9 10 -12 -13 13 -15 15 -17
leaf_value=-0.086943181879801393 0.039621399488728053 -0.046973207662134038 0.10186367927883665 -0.073683165702327774 0.019018587470739583 -0.066798949592693738 0.11272343800003129 -0.045190192434656877 0.040102387915179477 -0.081642826711970262 0.043223036530041607 0.083450288579692569 0.080229579083428884 -0.020537939573160829 -0.11374727775216474 0.015822683717974611
leaf_weight=2.0829937160015097 4.4089280515909186 7.2562014088034621 2.121834769845008 3.0255466401576987 5.9878343194723112 3.5611087530851355 3.5892786383628845 5.3688042163848868 3.8842860013246598 6.38630563020706 5.7410123348236084 4.6716155707836142 7.0116857290267927 4.6946345865726471 4.5773792564868909 6.6036455258727074
leaf_count=10 21 36 10 14 31 18 22 25 21 30 28 22 35 23 22 32
internal_value=7.70544e-05 -0.0022001 0.00248743 0.00525847 0.00210992 0.00580394 0.054137 -0.00301295 0.00162848 0.00739752 -0.0225319 0.018941 0.0076842 0.0398184 -0.0172853 -0.0372217
internal_weight=80.9731 76.5642 69.308 67.225 65.1031 62.0776 9.57711 52.5005 48.9394 43.5706 12.1273 31.4432 26.7716 11.7063 15.0653 11.181
internal_count=400 379 343 333 323 309 53 256 238 213 58 155 133 58 75 54
is_linear=0
shrinkage=0.1


Tree=30
num_leaves=16
num_cat=0
split_feature=6 6 4 5 4 4 4 2 9 8 3 8 4 3 3
split_gain=0.785386 1.01639 1.38035 1.88881 1.30924 1.24086 2.57685 1.82357 1.69909 4.30592 2.0258 2.07652 2.35143 0.908655 0.847397
threshold=0.07935577446405874 0.12243346663353195 0.21776445843208189 0.36175158814281683 0.27435385038889354 0.36927569660277004 0.41265218319081765 0.83823081895430962 0.22913445276860897 0.34441208618596941 0.79297210605869684 0.45264900800821656 0.67895820177293187 0.45741178974944618 0.37927341165831618
decision_type=2 2 2 2 2 2 2 2 2 2 2 2 2 2 2
left_child=-1 -2 3 -3 -4 13 -7 8 9 -8 11 14 -13 -6 -10
right_child=1 2 4 -5 5 6 7 -9 10 -11 -12 12 -14 -15 -16
leaf_value=0.035049049996089973 -0.050602560281326092 0.087513405692457635 -0.057357594581607302 0.00014296419337433318 -0.0016899771667410327 -0.092066759302733503 0.11775680705391503 -0.049546850510245176 1.1265575745146606e-05 -0.012042351555925979 -0.065726443472694351 -0.022492002421962955 0.074801456537892413 0.061775182960624592 -0.059011810532589463
leaf_weight=5.9430833011865607 4.1850318014621726 4.010642394423483 4.543235518038272 6.459478497505188 4.2128373831510526 3.3915629237890235 4.3286911994218809 6.6526056677103034 5.5227375626564079 6.2400814890861511 4.7178154587745658 4.0061234235763532 6.5382630005478859 4.8566392511129379 4.347088411450386
leaf_count=28 21 21 23 35 21 17 22 32 27 30 23 20 34 25 21
internal_value=7.35491e-05 -0.00273491 0.000133967 0.0336107 -0.00577101 -0.00149531 -0.00819467 -0.00147839 0.00747885 0.04112 -0.00666825 0.00698036 0.0378368 0.0322952 -0.025985
internal_weight=79.9559 74.0128 69.8278 10.4701 59.3577 54.8144 45.745 42.3534 35.7008 10.5688 25.132 20.4142 10.5444 9.06948 9.86983
internal_count=400 372 351 56 295 272 226 209 177 52 125 102 54 46 48
is_linear=0
shrinkage=0.1


Tree=31
num_leaves=16
num_cat=0
split_feature=3 1 1 0 3 6 1 4 3 5 1 5 4 4 0
split_gain=0.642039 2.67846 3.20491 2.82351 2.15609 2.72434 3.20367 1.90672 1.81126 2.64301 3.50439 1.78945 1.47312 0.826906 0.793526
threshold=0.31474167621526111 0.79334547607518491 0.12101828932167881 0.64814291775573529 0.36752005997644716 0.23089971784599192 0.79334547607518491 0.21776445843208189 0.54938281433929348 0.51568286340433689 0.36371118587370832 0.41915652744184717 0.36240586744568271 0.56627520659810748 0.3768539931414211
decision_type=2 2 2 2 2 2 2 2 2 2 2 2 2 2 2
left_child=1 2 -1 12 -2 11 7 -7 -9 10 -10 -6 -4 -11 -14
right_child=4 -3 3 -5 5 6 -8 8 9 13 -12 -13 14 -15 -16
leaf_value=0.064443623649547019 0.066583164986440624 0.058670619260018091 -0.020374218550551805 0.010594979368835031 -0.0046492842741675802 0.065375412266699365 -0.080464452797499308 -0.053909189325299582 -0.086885126041196747 0.078004073457067502 0.02697341285035372 0.077433913880364622 -0.12403326040834835 0.017303971068409248 -0.062197288669834178
leaf_weight=3.2655192464590135 5.3547509312629691 4.3837872967123976 3.8884356841444996 6.4483174234628668 4.5349028110504133 3.8548144623637226 5.9686630666255942 6.9185664355754879 5.2092505991458911 4.1883184760808927 5.6191563531756401 6.4098789393901825 4.4078294336795789 4.8351810276508331 3.9217014908790588
leaf_count=20 27 22 21 32 22 21 29 37 25 21 28 31 21 23 20
internal_value=7.57573e-05 -0.0126883 -0.0269517 -0.0429406 0.00642612 -0.000349953 -0.013442 -0.000379721 -0.00984813 0.00550754 -0.0278008 0.0434232 -0.0711952 0.0454783 -0.0949197
internal_weight=79.2091 26.3156 21.9318 18.6663 52.8935 47.5387 36.594 30.6253 26.7705 19.8519 10.8284 10.9448 12.218 9.0235 8.32953
internal_count=400 136 114 94 264 237 184 155 134 97 53 53 62 44 41
is_linear=0
shrinkage=0.1


Tree=32
num_leaves=16
num_cat=0
split_feature=4 7 8 4 3 3 5 9 2 1 3 7 9 6 2
split_gain=0.641261 2.15071 1.31336 1.1916 1.46225 2.23505 2.00505 2.47692 1.46962 1.55883 1.45283 1.17587 1.53043 1.9826 0.758997
threshold=0.84294744892608087 0.38052283017144406 0.48832870189918581 0.77683147939740782 0.72184096998837888 0.79020312643404944 0.69693989900890685 0.45894820510109979 0.1563219559863783 0.70503169388568754 0.85491372491288453 0.29954609770865726 0.35473852382776988 0.51555770832565961 0.57174027462609589
decision_type=2 2 2 2 2 2 2 2 2 2 2 2 2 2 2
left_child=3 -2 -3 4 6 -6 8 -8 -1 11 -7 -10 -13 -14 -11
right_child=1 2 -4 -5 5 10 7 -9 9 14 -12 12 13 -15 -16
leaf_value=-0.047591221736975324 0.067599924011278997 0.02767148709061111 -0.053020015084597152 -0.044574905492051939 0.089566328224691141 -0.042433772057173302 0.0016550100908543286 -0.082620782650222102 -0.041543897622136262 0.08292418871678657 0.034036905867312707 -0.033080959436540824 0.094774831125816542 -0.0049896603323209329 0.021206853319820133
leaf_weight=4.3687904179096249 5.5646057128906241 3.9814018756151182 4.0884109288454056 6.5362605080008498 4.1900047212839118 4.1875965446233732 7.0643687546253187 6.8876092880964279 5.1708940863609376 3.9555531144142142 6.1083848848938942 4.2666435092687598 3.6994390636682493 4.3158478885889053 4.0154000520706177
leaf_count=22 28 21 20 33 21 21 37 34 26 20 32 24 19 22 20
internal_value=6.01012e-05 0.0197713 -0.0132093 -0.00408942 0.000454995 0.0279925 -0.00866402 -0.039949 0.00598687 0.0151937 0.00293464 -0.00154042 0.0153017 0.0410564 0.0518338
internal_weight=78.4012 13.6344 8.06981 64.7668 58.2305 14.486 43.7445 13.952 29.7926 25.4238 10.296 17.4528 12.2819 8.01529 7.97095
internal_count=400 69 41 331 298 74 224 71 153 131 53 91 65 41 40
is_linear=0
shrinkage=0.1


Tree=33
num_leaves=15
num_cat=0
split_feature=2 2 4 5 3 1 3 2 6 9 2 2 2 9
split_gain=0.599655 1.03648 1.11157 2.0779 3.56575 1.91983 1.37811 1.64677 2.11962 1.3728 1.55722 1.2084 0.873915 0.635098
threshold=0.94713665497711963 0.83823081895430962 0.73575006738226911 0.41915652744184717 0.61022372342409248 0.31199395698188831 0.70268727042564549 0.26578302627528105 0.43698058320165867 0.74067992036031338 0.58836701017362281 0.45049385599146469 0.19453326410287883 0.37549769532681737
decision_type=2 2 2 2 2 2 2 2 2 2 2 2 2 2
left_child=1 2 6 4 -4 -5 7 8 -1 10 11 -9 -8 -14
right_child=-2 -3 3 5 -6 -7 12 9 -10 -11 -12 -13 13 -15
leaf_value=-0.098765906272474169 0.036400275573735839 -0.038660806570154582 0.045307985063974265 0.1063088654918817 -0.08057020567769474 0.018591894304653175 0.060029794014458827 0.0088246035893248913 -0.0050627045517926874 -0.042349912124472901 -0.025299070984635436 0.077863573270771286 0.028551662100888827 -0.025197745182961952
leaf_weight=4.8427909165620786 4.2913378179073325 6.9994110688567153 4.8198070079088229 4.0139295756816846 4.2212159857153893 6.5943256467580795 4.0126485973596564 6.6610024273395592 4.8135728687047958 6.5683670192956916 7.0775736123323432 4.0931512266397476 4.7670152783393842 4.0797085836529732
leaf_count=23 21 36 26 21 20 34 19 34 25 31 39 22 26 23
internal_value=6.37972e-05 -0.00205587 0.00179319 0.021761 -0.013464 0.0517821 -0.00656974 -0.0171013 -0.0520561 -0.00326793 0.011128 0.0351016 0.0213218 0.00376487
internal_weight=77.8559 73.5645 66.5651 19.6493 9.04102 10.6083 46.9158 34.0565 9.65636 24.4001 17.8317 10.7542 12.8594 8.84672
internal_count=400 379 343 101 46 55 242 174 48 126 95 56 68 49
is_linear=0
shrinkage=0.1


Tree=34
num_leaves=16
num_cat=0
split_feature=9 8 0 0 0 1 0 6 2 5 4 0 8 6 6
split_gain=0.605688 1.34735 3.68867 2.07103 2.66346 2.36398 2.22928 2.28443 2.12324 1.84523 2.6633 1.4225 1.25657 1.17615 0.869097
threshold=0.90677449295678547 0.13766949750765942 0.49926986365203796 0.53997055849381692 0.86003120022605584 0.45684732911687204 0.4145183693182054 0.88805681592044705 0.46000864135606467 0.70759403560389911 0.59407445209843457 0.19238645088288012 0.36963872827848893 0.49997131173911669 0.59499512954156708
decision_type=2 2 2 2 2 2 2 2 2 2 2 2 2 2 2
left_child=1 2 -1 6 5 13 7 9 -6 10 12 -12 -3 -5 -7
right_child=-2 3 -4 4 8 14 -8 -9 -10 -11 11 -13 -14 -15 -16
leaf_value=-0.034633346930278107 0.026292436025509715 0.01655167107236994 0.098411342721740735 -0.048791467697808177 -0.033171715521275076 -0.11110338200216147 0.060817252646909806 -0.077696922646026956 0.064835071906863925 -0.038879167445364092 0.019975153532859273 -0.061098013587110936 0.091113649604678631 0.028728074228634159 -0.050477075330053758
leaf_weight=3.9960889518260938 7.9018494337797156 3.8429839313030332 4.3548743054270744 4.0209132283926072 4.4522792845964414 5.4932650625705701 6.4869408309459677 3.677321568131446 4.3900976851582527 6.5013396218419066 4.8241647332906705 3.9250239580869675 5.4879381135106087 3.8134569823741913 4.1515388786792755
leaf_count=20 39 20 21 21 21 29 34 19 22 34 24 21 32 21 22
internal_value=5.92665e-05 -0.00292684 0.034747 -0.00807876 -0.0292372 -0.0518623 0.00794978 -0.00418621 0.0154871 0.00681081 0.0232402 -0.0163955 0.0604049 -0.0110581 -0.0850072
internal_weight=77.3201 69.4182 8.35096 61.0673 26.3216 17.4792 34.7457 28.2588 8.84238 24.5815 18.0801 8.74919 9.33092 7.83437 9.6448
internal_count=400 361 41 320 136 93 184 150 43 131 97 45 52 42 51
is_linear=0
shrinkage=0.1


Tree=35
num_leaves=17
num_cat=0
split_feature=3 2 2 0 8 8 2 9 4 2 5 5 9 3 8 9
split_gain=0.560828 1.14906 1.52217 1.18197 1.10707 2.1868 2.04184 2.49651 1.93385 1.9222 2.21294 2.38154 2.29971 2.3507 1.82445 1.30953
threshold=0.036553139259122576 0.081956118179446827 0.13083904588421538 0.8837729554277628 0.76838343745521598 0.62513528921250849 0.23091841051354392 0.74067992036031338 0.74308059695665329 0.34289729159859883 0.81141105280405379 0.13506151216201087 0.23081510849339573 0.45741178974944618 0.86689528535647409 0.84336913765185251
decision_type=2 2 2 2 2 2 2 2 2 2 2 2 2 2 2 2
left_child=-1 -2 -3 4 5 6 -4 9 14 -8 11 -11 -13 -14 -6 -9
right_child=1 2 3 -5 8 -7 7 15 -10 10 -12 12 13 -15 -16 -17
leaf_value=-0.038386096140004863 0.051759359000478726 -0.06655645213087584 0.06310794900258096 0.042298788078442416 -0.097609949458617631 0.057756282491294088 -0.056264203723809685 -0.099175921757009858 0.030890654786339972 0.068921837982603443 0.080318906224102926 0.043668043097356057 0.0014240883205072308 -0.10372279410105863 -0.010744826570060359 -0.023300979842462082
leaf_weight=3.6166528388857833 4.3561617583036414 3.3881564736366263 4.0509629622101775 6.6032732874155036 4.5398769378662092 6.7476577609777442 4.296812109649184 4.0266365706920606 4.0526030212640753 3.8383246138691964 4.3809474706649771 3.7722387462854376 4.3358931168913823 4.1720821782946587 5.1730883792042732 5.2279761731624603
leaf_count=19 22 17 21 32 23 36 22 20 21 21 23 21 23 23 30 26
internal_value=5.14888e-05 0.00195678 -0.00120542 0.00218962 -0.00232887 0.00528493 -0.00400749 -0.0119921 -0.0271354 0.00454993 0.0172969 0.000167841 -0.021322 -0.0501371 -0.0513459 -0.0563138
internal_weight=76.5793 72.9627 68.6065 65.2184 58.6151 44.8495 38.1019 34.0509 13.7656 24.7963 20.4995 16.1185 12.2802 8.50798 9.71297 9.25461
internal_count=400 381 359 342 310 236 200 179 74 133 111 88 67 46 53 46
is_linear=0
shrinkage=0.1


Tree=36
num_leaves=16
num_cat=0
split_feature=2 2 4 5 3 1 3 2 6 2 9 4 6 3 1
split_gain=0.518414 0.923701 0.935834 1.72095 2.8329 1.68033 1.05776 1.3132 1.76756 1.04452 1.55482 1.91862 1.21368 0.799294 1.29162
threshold=0.94713665497711963 0.83823081895430962 0.73575006738226911 0.41915652744184717 0.61022372342409248 0.31199395698188831 0.70268727042564549 0.26578302627528105 0.43698058320165867 0.57503521918094458 0.24743865559250108 0.35171637730416139 0.53871946459080144 0.79020312643404944 0.39833009887952664
decision_type=2 2 2 2 2 2 2 2 2 2 2 2 2 2 2
left_child=1 2 6 4 -4 -5 7 8 -1 10 -9 -12 -11 -8 -15
right_child=-2 -3 3 5 -6 -7 13 9 -10 12 11 -13 -14 14 -16
leaf_value=-0.090565512339895418 0.034152447740599771 -0.03701473283562582 0.040817465975427618 0.10017495186976991 -0.072889504830868299 0.016868061033683466 0.055349891464464188 0.071151559951877885 -0.0035478163850273937 0.010376224955216402 -0.050052426479657089 0.034125087069499564 -0.062300463412548357 -0.040122179215928408 0.037815885752023708
leaf_weight=4.6880941838026029 4.2053250372409812 6.8077907413244239 4.6937775090336817 3.8562336564064008 4.1093231216073036 6.5063552409410477 4.0254525914788237 3.5655053332448032 4.6493063047528267 4.2220707014203054 5.0516139864921552 5.8355658054351807 5.0416974127292633 4.0010557547211629 4.5381177067756653
leaf_count=23 21 36 26 21 20 34 23 20 25 23 25 30 28 21 24
internal_value=2.9717e-05 -0.00197466 0.0017075 0.0202502 -0.0122614 0.0478691 -0.00608285 -0.0154711 -0.0472374 -0.00296444 0.0138372 -0.00493299 -0.0291772 0.018615 0.00129777
internal_weight=75.7973 71.592 64.7842 19.1657 8.8031 10.3626 45.6185 33.0539 9.3374 23.7165 14.4527 10.8872 9.26377 12.5646 8.53917
internal_count=400 379 343 101 46 55 242 174 48 126 75 55 51 68 45
is_linear=0
shrinkage=0.1


Tree=37
num_leaves=15
num_cat=0
split_feature=6 2 0 0 5 6 0 5 0 3 6 6 9 2
split_gain=0.544875 0.912509 0.778624 1.50366 1.90522 1.38224 3.54896 3.26337 2.0891 1.36049 1.53752 1.54737 1.21725 0.45105
threshold=0.90549748010494147 0.93522947646263155 0.086449247153459377 0.22221303408709367 0.38929775867991046 0.77641335527234678 0.84711597091918311 0.80724819724507813 0.59264343566474487 0.68011501312664535 0.55866757833129899 0.42460195866659739 0.47973667865800917 0.43341485363723975
decision_type=2 2 2 2 2 2 2 2 2 2 2 2 2 2
left_child=1 2 -1 4 -4 6 7 9 -7 10 11 13 -8 -5
right_child=-2 -3 3 5 -6 8 12 -9 -10 -11 -12 -13 -14 -15
leaf_value=-0.033854291934511935 -0.025045328712652255 0.047824087413775564 -0.019972268829585561 -0.012162818968989859 0.06880388494926791 0.08727843215221659 0.0070525987749136074 0.035478006300812041 -0.016285799297810526 -0.087448829834891328 -0.074298346835459383 0.041946150268137049 0.080612693050289425 -0.059654259027398897
leaf_weight=6.1659269034862509 7.7721600010991088 4.2402526140213004 3.7313447594642621 3.9918424561619847 6.8650887459516525 3.8005543053150168 4.6004546806216222 6.2544458508491507 3.9954470098018646 5.8828656151890746 5.7336304783821097 3.7428283840417862 4.4021248519420624 4.007533498108387
leaf_count=31 39 21 21 21 38 21 23 34 21 33 31 20 23 23
internal_value=2.63728e-05 0.00291687 -9.7303e-05 0.00355381 0.0375429 -0.00420638 -0.0119605 -0.0286756 0.0342018 -0.0458532 -0.0318509 -0.0111241 0.0430224 -0.0359551
internal_weight=75.1865 67.4143 63.1741 57.0082 10.5964 46.4117 38.6157 29.6131 7.796 23.3587 17.4758 11.7422 9.00258 7.99938
internal_count=400 361 340 309 59 250 208 162 42 128 95 64 46 44
is_linear=0
shrinkage=0.1


Tree=38
num_leaves=16
num_cat=0
split_feature=9 5 5 3 3 6 3 3 5 2 0 7 7 3 3
split_gain=0.542974 1.39412 2.16837 2.74829 2.94285 1.96841 2.6814 1.91617 1.89058 3.05391 2.31611 1.75572 2.79492 1.30317 0.9076
threshold=0.90677449295678547 0.18077739270435936 0.41177662386786285 0.61022372342409248 0.47843034630780679 0.40127152779298864 0.55245443742324374 0.65106685592346691 0.58418151976092381 0.27456153639935643 0.2915371492207694 0.51255655768115327 0.78283314107538426 0.25883560698828656 0.224266929694273
decision_type=2 2 2 2 2 2 2 2 2 2 2 2 2 2 2
left_child=1 7 5 4 8 -3 -7 13 -4 -10 -11 -5 -13 -1 -12
right_child=-2 2 3 11 -6 6 -8 -9 9 10 14 12 -14 -15 -16
leaf_value=0.015161143704663316 0.025121303897841309 -0.09589925418304078 0.048153982258496882 0.078992475993041669 -0.09444231159360901 0.028227789133636234 -0.0719245550153471 -0.021662990204704229 -0.091255670046857265 -0.058879760072583678 0.077978708828549056 -0.053676539738021438 0.066071558671656455 0.098343882068166077 0.008198866077401841
leaf_weight=3.5844509154558164 7.7264414355158797 4.6508687287569037 5.5627612993121209 6.0452750921249372 4.1008228883147231 5.7869419604539853 4.9683398753404617 4.8533305153250694 4.3134004622697821 3.5355154126882535 3.3536728024482727 3.8346318453550339 3.9638663753867149 3.9685138911008835 4.1961406618356705
leaf_count=20 39 25 32 32 23 32 27 24 21 18 20 22 21 21 23
internal_value=2.52605e-05 -0.00288103 -0.00978976 0.00278374 -0.0169695 -0.0415424 -0.018037 0.027364 -0.00181308 -0.0198636 0.00791572 0.0385444 0.00718973 0.0588674 0.0391955
internal_weight=74.445 66.7185 54.3122 38.9061 25.0623 15.4062 10.7553 12.4063 20.9615 15.3987 11.0853 13.8438 7.7985 7.55296 7.54981
internal_count=400 361 296 212 137 84 59 65 114 82 61 75 43 41 43
is_linear=0
shrinkage=0.1


Tree=39
num_leaves=16
num_cat=0
split_feature=3 2 2 9 1 0 7 2 0 0 3 4 4 7 7
split_gain=0.536969 0.872496 0.947812 3.98028 2.0359 1.22321 1.15462 1.66929 1.19724 2.45558 2.05137 2.68713 1.33804 2.5443 1.04053
threshold=0.036553139259122576 0.081956118179446827 0.2522320808797251 0.70961353360008783 0.28768342879018821 0.8837729554277628 0.88042871400463729 0.30992343650605586 0.23925047011769293 0.16124041047059282 0.57348243116923325 0.75467232651592542 0.36240586744568271 0.60259136716083328 0.46062034250518152
decision_type=2 2 2 2 2 2 2 2 2 2 2 2 2 2 2
left_child=-1 -2 3 4 -3 6 7 -4 9 14 12 -12 -10 -14 -9
right_child=1 2 5 -5 -6 -7 -8 8 10 -11 11 -13 13 -15 -16
leaf_value=-0.037904441285982041 0.046559660627440706 -0.010337956339451405 0.080887194910707977 0.051363183494781722 -0.10907238433201186 0.051860097086936022 -0.036496035058053176 -0.036037139723482707 0.048682190474624007 0.096610407682059238 -0.089129456920291145 0.013761065461385225 0.029045853453137861 -0.076669458125538617 0.036453480904598302
leaf_weight=3.5539376586675635 4.1242197081446639 3.7450106590986234 2.8235474079847327 4.4563201591372481 4.7212487608194351 5.0547810420393935 7.2933579906821242 4.3385844230651838 6.1062720417976406 3.5921010673046112 5.9471252709627134 4.4282882809638977 5.9926345050334913 3.6714123114943504 3.6426027491688728
leaf_count=19 22 21 15 22 26 25 38 23 34 22 33 23 36 21 20
internal_value=1.45238e-05 0.00194141 -0.000854613 -0.025133 -0.0653977 0.00507722 0.000133718 0.00672318 0.00117146 0.0279497 -0.0106818 -0.0452152 0.012038 -0.0111158 -0.00295252
internal_weight=73.4914 69.9375 65.8133 12.9226 8.46626 52.8907 47.8359 40.5426 37.719 11.5733 26.1457 10.3754 15.7703 9.66405 7.98119
internal_count=400 381 359 69 47 290 265 227 212 65 147 56 91 57 43
is_linear=0
shrinkage=0.1


Tree=40
num_leaves=15
num_cat=0
split_feature=6 0 0 8 9 0 4 1 4 5 4 3 8 6
split_gain=0.45909 0.763352 1.76352 0.849441 1.59753 1.57961 4.16866 3.09189 2.90462 2.07191 1.97012 4.75535 1.24143 0.420301
threshold=0.07935577446405874 0.12424180295872096 0.046937682521861986 0.13766949750765942 0.093887097643322606 0.53997055849381692 0.56627520659810748 0.80312471495058502 0.84294744892608087 0.73074166817150144 0.64139520449538934 0.52659599482927288 0.35986130003463196 0.39650668287324514
decision_type=2 2 2 2 2 2 2 2 2 2 2 2 2 2
left_child=-1 2 -2 -3 -5 6 9 10 -8 12 11 -7 -6 -12
right_child=1 3 -4 4 5 7 8 -9 -10 -11 13 -13 -14 -15
leaf_value=0.027942043197610001 0.018840656705083184 0.034344294718072203 -0.066847153634378847 -0.053727413564206988 0.034617308072639311 -0.076663601004257453 -0.072877279349473453 -0.092369515521411399 0.040591794597898315 -0.0044761824399491383 0.01886174476383352 0.054831900623056554 0.11162148295122572 0.067584577636863319
leaf_weight=5.440993331372737 4.3744360655546171 7.1609191745519629 5.326300360262394 5.424368128180503 3.2101481258869189 6.7428536638617569 5.6868150383234006 4.1941994428634635 3.7394196018576622 3.6145417988300315 3.4162966981530181 4.6445190161466599 6.0192992687225342 3.6751442849636078
leaf_count=28 22 38 30 31 19 35 30 22 21 20 19 26 38 21
internal_value=3.05936e-06 -0.0022581 -0.0282072 0.00211757 -0.0024642 0.00372294 0.0226392 -0.0148573 -0.0278637 0.0597034 0.00273593 -0.0230311 0.0848382 0.0441124
internal_weight=72.6703 67.2293 9.70074 57.5285 50.3676 44.9432 22.2702 22.673 9.42623 12.844 18.4788 11.3874 9.22945 7.09144
internal_count=400 372 52 320 282 251 128 123 51 77 101 61 57 40
is_linear=0
shrinkage=0.1


Tree=41
num_leaves=16
num_cat=0
split_feature=6 6 2 9 7 5 7 4 1 0 5 1 3 2 8
split_gain=0.601865 2.37693 0.730704 0.722594 3.62937 1.75418 2.57045 1.94755 1.6077 1.64006 1.60832 1.91597 0.980138 0.976437 0.743939
threshold=0.94836571001854664 0.90549748010494147 0.93522947646263155 0.74067992036031338 0.48611118091095928 0.1968762021267936 0.71001281676858341 0.55875378836542799 0.5655511621203021 0.52992367836278442 0.38929775867991046 0.23466914435247546 0.42511089060537161 0.42946049403653491 0.50641047488438651
decision_type=2 2 2 2 2 2 2 2 2 2 2 2 2 2 2
left_child=1 2 3 5 -5 14 8 -8 10 -10 -7 -12 -6 -13 -1
right_child=-2 -3 -4 4 12 6 7 -9 9 -11 11 13 -14 -15 -16
leaf_value=0.072601484753553144 0.04018211039669739 -0.077772711943334558 0.043389377054620197 0.042434376785812307 -0.093339377484295299 -0.1000119870546681 0.077431772671736426 -0.0076288520497711319 0.04729655072187719 -0.042517850971689634 0.022435969097316561 -0.088205087565659201 -0.028004518903604388 -0.01711570095356468 0.015103449872690553
leaf_weight=4.7733069732785207 3.54500888288021 3.910726658999919 4.0968452990055075 5.8488876372575751 4.2738276720046979 3.4687587022781434 5.6722337529063207 5.1226552575826645 5.4288087338209134 3.2504748478531837 5.3757409453392011 4.1640233993530273 4.961984783411026 3.6047315746545792 4.2571964114904404
leaf_count=28 18 21 21 32 22 21 33 27 31 20 33 21 26 23 23
internal_value=8.68942e-06 -0.0020792 0.00252452 -0.00025637 -0.0192036 0.00607843 -0.00378528 0.0370667 -0.021221 0.0136602 -0.039444 -0.0234604 -0.0582379 -0.0552193 0.0454955
internal_weight=71.7552 68.2102 64.2995 60.2026 15.0847 45.1179 36.0874 10.7949 25.2925 8.67928 16.6133 13.1445 9.23581 7.76875 9.0305
internal_count=400 382 361 340 80 260 209 60 149 51 98 77 48 44 51
is_linear=0
shrinkage=0.1


Tree=42
num_leaves=17
num_cat=0
split_feature=6 6 2 1 2 9 0 7 9 1 0 0 7 4 4 1
split_gain=0.489839 1.96493 0.594387 0.613346 2.35845 2.25332 1.74415 1.893 3.87941 2.59193 1.80776 1.5485 1.97294 1.75784 0.938592 1.41292
threshold=0.94836571001854664 0.90549748010494147 0.93522947646263155 0.77002796643817695 0.38716745958941595 0.54088881506099262 0.086449247153459377 0.51255655768115327 0.5921267314503782 0.61106698032974571 0.5348094391389433 0.24431584194786951 0.70061938682764191 0.46709799883653913 0.3198614266960299 0.48535511531112324
decision_type=2 2 2 2 2 2 2 2 2 2 2 2 2 2 2 2
left_child=1 2 3 6 -5 -6 -1 8 14 11 -10 -9 -13 -14 -8 -16
right_child=-2 -3 -4 4 5 -7 7 9 10 -11 -12 12 13 -15 15 -17
leaf_value=-0.067308938831483991 0.036295065460518153 -0.071387544927152782 0.039202779720722086 0.083183598025484029 0.043927502893704375 -0.068027068044481012 0.028487243301415228 0.058747384693911386 0.032901898326217947 -0.085135208327986087 0.13063372676755533 -0.058445442153646991 0.061984270331683501 -0.027771390834737598 -0.060607118138474685 0.019099440955319014
leaf_weight=4.1239368468523017 3.532858431339263 3.8383763357996932 4.0817459076642981 3.9340180531144124 3.5284188687801361 3.6653482243418694 4.3590842410922077 3.4070736616849961 3.9616948664188376 4.7246092855930319 3.623902328312397 6.3258167281746855 4.1559637039899808 4.5939629673957825 5.4127590879797918 3.7750327363610268
leaf_count=21 18 21 21 21 20 20 25 22 21 28 23 36 25 24 33 21
internal_value=-3.3524e-06 -0.00190283 0.00228587 -0.000242769 0.0209294 -0.0131153 -0.00510411 0.000681402 0.0223343 -0.0190355 0.0795918 -0.00213901 -0.0158992 0.01486 -0.00972714 -0.0278577
internal_weight=71.0446 67.5117 63.6734 59.5916 11.1278 7.19377 48.4638 44.3399 21.1325 23.2074 7.5856 18.4828 15.0757 8.74993 13.5469 9.18779
internal_count=400 382 361 340 61 40 279 258 123 135 44 107 85 49 79 54
is_linear=0
shrinkage=0.1


Tree=43
num_leaves=16
num_cat=0
split_feature=7 7 6 1 6 1 3 2 6 8 4 6 9 7 5
split_gain=0.407335 0.770273 0.811277 3.45312 2.19762 1.83437 2.53392 1.07004 1.70517 2.1677 1.48366 2.11525 1.31121 1.75363 1.16518
threshold=0.047869003610584777 0.11387319494171551 0.23914837719779972 0.76099594302784579 0.38096237156664087 0.17536713520272204 0.61022372342409248 0.15053139954975883 0.53871946459080144 0.48381349186750028 0.22291286911867655 0.9295299536560403 0.15848531757341369 0.7534819811971768 0.6783056936750913
decision_type=2 2 2 2 2 2 2 2 2 2 2 2 2 2 2
left_child=-1 -2 3 5 -4 -3 -7 -6 9 -9 -10 12 -12 14 -14
right_child=1 2 4 -5 7 6 -8 8 10 -11 11 -13 13 -15 -16
leaf_value=-0.034572017958850856 0.041324382420701675 0.049946972508528059 -0.064901877301580327 0.10004596210061903 -0.046114532164510044 -0.08199736299203142 0.028561089667873369 0.10551419843284773 0.045600573389035733 0.0024854810177192448 0.015833312983842891 0.054703602419454933 -0.047069964994421828 -0.091114612111785911 0.025389413637873698
leaf_weight=3.2484054416418067 4.5681558400392523 3.76821490377188 5.9102140218019477 3.898148462176322 4.4041768535971633 4.7721601501107198 3.6652549356222153 3.5092466175556165 4.6396980509161976 4.8846148625016212 4.7972322776913705 3.5322895199060431 5.6291809007525426 5.1802156195044509 3.6635622009634972
leaf_count=19 24 23 35 21 24 26 21 21 29 28 28 19 32 29 21
internal_value=8.65867e-06 0.00168971 -0.00121864 0.0181066 -0.007962 -0.00806267 -0.0339702 0.000400951 0.00611761 0.045559 -0.00594651 -0.016435 -0.0294749 -0.0444928 -0.0185036
internal_weight=70.0708 66.8224 62.2542 16.1038 46.1504 12.2056 8.43742 40.2402 35.836 8.39386 27.4422 22.8025 19.2702 14.473 9.29274
internal_count=400 381 357 91 266 70 47 231 207 49 158 129 110 82 53
is_linear=0
shrinkage=0.1


Tree=44
num_leaves=15
num_cat=0
split_feature=3 0 9 1 9 3 1 0 9 9 9 4 0 8
split_gain=0.448883 0.803715 1.03414 1.03388 2.14808 1.99343 1.76801 1.57337 2.29783 1.92438 3.37036 2.13759 1.123 0.792007
threshold=0.036553139259122576 0.8837729554277628 0.070509602315671008 0.77002796643817695 0.23081510849339573 0.54938281433929348 0.66832478015433083 0.11645710424160029 0.84336913765185251 0.74067992036031338 0.64159579491016261 0.44497698287176135 0.23925047011769293 0.40290269794705152
decision_type=2 2 2 2 2 2 2 2 2 2 2 2 2 2
left_child=-1 2 -2 4 12 -5 7 -6 9 10 11 -9 -4 -13
right_child=1 -3 3 5 6 -7 -8 8 -10 -11 -12 13 -14 -15
leaf_value=-0.035403538491013617 -0.057740888051026097 0.034420731783399522 0.073833386880745741 0.063958692276014625 -0.065361311967817512 -0.0234600519259579 -0.075851356922551488 0.02634142011951815 0.063948744199572777 -0.074139380260718382 0.082080517604895195 -0.089357334820491977 0.0047895530734287312 -0.027625791508894729
leaf_weight=3.4044121131300917 3.1410871520638457 6.7892570346593848 4.4040439240634424 6.5087702721357328 4.1854994818568256 4.3530790656805038 4.4230845421552649 5.5979886949062445 4.7163277491927138 4.1692167222499839 4.0136531442403784 3.5388503745198232 5.0650873482227325 5.0358075425028801
leaf_count=19 21 36 28 36 22 25 27 36 25 23 24 20 29 29
internal_value=5.51494e-06 0.0018336 -0.00190661 0.00122455 -0.00543926 0.0289241 -0.016676 -0.00830232 0.00051941 -0.0128622 0.00118558 -0.0217236 0.0369015 -0.053103
internal_weight=69.3462 65.9418 59.1525 56.0114 45.1496 10.8618 35.6804 31.2573 27.0718 22.3555 18.1863 14.1726 9.46913 8.57466
internal_count=400 381 345 324 263 61 206 179 157 132 109 85 57 49
is_linear=0
shrinkage=0.1


Tree=45
num_leaves=15
num_cat=0
split_feature=4 1 6 0 0 0 8 3 1 5 8 9 6 0
split_gain=0.399839 2.09493 3.66043 1.25559 1.14798 1.14012 2.46644 2.34216 1.62525 1.86879 1.99342 1.76292 1.13886 0.360056
threshold=0.63596094812058379 0.57149168488618163 0.49290873664313423 0.64814291775573529 0.22221303408709367 0.57710917323955757 0.2546910427713347 0.52659599482927288 0.13526845763506176 0.79321488106238458 0.36963872827848893 0.72139966072955264 0.55866757833129899 0.41848761365794246
decision_type=2 2 2 2 2 2 2 2 2 2 2 2 2 2
left_child=5 3 -3 4 -2 8 -7 12 -1 10 -10 -12 -8 -6
right_child=1 2 -4 -5 13 6 7 -9 9 -11 11 -13 -14 -15
leaf_value=0.063959378751151666 0.0087677182925070211 0.12097486044969841 -0.0050704594858198455 0.025770067096282941 -0.080165212239759961 0.039835651909286472 -0.12729338835384649 0.0048395241267329761 -0.029695003261109416 -0.060938915257802963 0.0055758373157885118 0.092303868424053845 -0.048044717241625956 -0.034457561504874772
leaf_weight=4.1911451853811768 4.4883435368537956 3.9426700174808484 5.5433485507965088 6.0447055250406256 3.2850071415305138 4.1205566748976734 3.4354538768529874 4.7455534115433693 6.9249919950962129 4.5563072934746733 5.8244365006685239 3.9219705611467361 3.8405833467841148 3.6254680156707764
leaf_count=30 26 20 31 36 19 24 19 29 38 26 38 22 21 21
internal_value=3.68879e-06 0.00949565 0.0473177 -0.0110725 -0.0306098 -0.00614665 -0.0269307 -0.0498157 0.00705217 -0.00418344 0.0113279 0.0404753 -0.0854628 -0.0561854
internal_weight=68.4905 26.9295 9.48602 17.4435 11.3988 41.561 16.1421 12.0216 25.4189 21.2277 16.6714 9.74641 7.27604 6.91048
internal_count=400 153 51 102 66 247 93 69 154 124 98 60 40 40
is_linear=0
shrinkage=0.1


Tree=46
num_leaves=16
num_cat=0
split_feature=1 1 0 0 3 8 9 7 8 3 0 6 6 1 9
split_gain=0.417532 1.00104 0.77813 1.46056 2.47912 1.19349 1.18621 2.24091 1.57676 1.25146 1.04593 1.36329 1.17333 1.86391 0.415782
threshold=0.9376509241744343 0.88902703254489612 0.11645710424160029 0.23925047011769293 0.27902766111721128 0.41893200754601173 0.65142768409265028 0.34381741421850204 0.5755775481347456 0.1833155325932295 0.8837729554277628 0.7841506090690703 0.23750142322005743 0.53215408512376883 0.35761882863696742
decision_type=2 2 2 2 2 2 2 2 2 2 2 2 2 2 2
left_child=1 2 5 4 -4 -1 9 -8 -9 -5 11 12 -11 14 -14
right_child=-2 -3 3 6 -6 -7 7 8 -10 10 -12 -13 13 -15 -16
leaf_value=-0.072629188325517888 -0.03464087057423372 0.05027418832372138 -0.035674859363660043 0.028027699368853094 0.07823517825916157 0.0044733237845852826 0.066853165154635991 -0.046550411923025815 0.034218275281638309 -0.0041588433384163424 0.024880489535763398 0.0061759805968769968 -0.12553287891090237 -0.012138424604470632 -0.07535127910233759
leaf_weight=3.6518753916025144 3.3088492527604094 3.9932790994644156 2.8526701219379884 5.1149234473705318 5.7856408655643463 4.4589183479547501 5.8194579854607573 5.5594141185283643 4.2760805785655975 3.7223999425768914 3.3580909967422476 5.5957172662019721 3.4221606031060201 3.6299147233366966 3.1904110088944435
leaf_count=20 18 21 20 32 37 25 36 30 24 24 17 32 21 23 20
internal_value=3.41269e-06 0.00178257 -0.0014214 0.00304586 0.0406181 -0.030242 -0.00438311 0.017667 -0.0114354 -0.0166967 -0.0266781 -0.0355295 -0.0522409 -0.0697152 -0.101321
internal_weight=67.7398 64.431 60.4377 52.3269 8.63831 8.11079 43.6886 15.655 9.83549 28.0336 22.9187 19.5606 13.9649 10.2425 6.61257
internal_count=400 382 361 316 57 45 259 90 54 169 137 120 88 64 41
is_linear=0
shrinkage=0.1


Tree=47
num_leaves=15
num_cat=0
split_feature=4 7 4 4 3 6 2 0 0 5 3 3 9 3
split_gain=0.398909 1.67174 0.918498 1.22868 1.03839 2.33091 1.37127 1.24921 1.64362 1.98826 1.07566 1.06207 0.858091 0.671131
threshold=0.84294744892608087 0.65368318456875973 0.77683147939740782 0.67108617243814717 0.40342930792758824 0.50843801774819786 0.57503521918094458 0.85688215082529873 0.23925047011769293 0.80154548793699765 0.68011501312664535 0.1833155325932295 0.52764520480582633 0.28348119160687241
decision_type=2 2 2 2 2 2 2 2 2 2 2 2 2 2
left_child=2 13 3 4 5 11 -7 8 12 10 -10 -1 -6 -2
right_child=1 -3 -4 -5 7 6 -8 -9 9 -11 -12 -13 -14 -15
leaf_value=-0.012980343295264461 0.0096845919637065635 -0.038059252586158748 -0.042077053210565464 0.042991791434827405 0.076400324085842075 0.046101367055055957 -0.028561054428218276 0.062212913415242523 -0.012113732336782384 0.046478411944140569 -0.076844237029176699 -0.081827747892236458 0.0042998223631854479 0.068058866427792256
leaf_weight=3.5061455331742781 3.4953456297516805 3.7870185151696196 5.5707285702228537 6.0459513366222373 3.2727110646665158 5.3780062608420831 4.5335897505283356 3.7088957279920569 5.4801650047302228 3.3263082429766646 4.8296164572238922 6.2079595625400543 3.3304197564721107 4.5118426904082298
leaf_count=22 21 21 33 36 21 32 28 20 32 20 30 38 19 27
internal_value=-8.09228e-06 0.0166854 -0.00357549 0.00074702 -0.00511452 -0.0221671 0.0119506 0.00886022 -0.00091681 -0.0207473 -0.0424367 -0.0569784 0.040035 0.042577
internal_weight=66.9847 11.7942 55.1905 49.6198 43.5738 19.6257 9.9116 23.9481 20.2392 13.6361 10.3098 9.71411 6.60313 8.00719
internal_count=400 69 331 298 262 120 60 142 122 82 62 60 40 48
is_linear=0
shrinkage=0.1


Tree=48
num_leaves=18
num_cat=0
split_feature=3 2 2 4 0 1 4 9 5 8 3 9 8 6 6 9 9
split_gain=0.392616 0.715955 0.83638 1.04524 0.866396 0.728039 2.13115 1.09471 1.36686 1.59687 1.57971 1.52309 1.41077 1.347 2.6623 1.16951 1.03663
threshold=0.036553139259122576 0.081956118179446827 0.20469182455494125 0.46335023528826597 0.8837729554277628 0.13526845763506176 0.51578026393838261 0.093887097643322606 0.74948635303186095 0.62513528921250849 0.31474167621526111 0.25486551539606184 0.76838343745521598 0.82249829087486714 0.55866757833129899 0.63342092922050963 0.46304920219179863
decision_type=2 2 2 2 2 2 2 2 2 2 2 2 2 2 2 2 2
left_child=-1 -2 3 -3 5 6 -4 -7 9 11 -10 -9 -11 14 15 -13 -12
right_child=1 2 4 -5 -6 7 -8 8 10 12 16 13 -14 -15 -16 -17 -18
leaf_value=-0.033555529894359545 0.043688018565020324 0.011470219045783308 0.093623515044048075 -0.060366206546298928 0.044594136152066866 -0.059002606957050452 -0.024620634523777205 0.057181053672845941 -0.085429156173453799 0.09901080710924777 0.036517687732366154 -0.040264112556692884 0.015579499864378801 0.035868479052646 -0.11532771035732639 0.037925370283082474 -0.039691312107502652
leaf_weight=3.3151505962014189 3.8240680098533621 3.4801683947443944 2.9165808521211138 4.8457050770521164 4.7335862554609767 3.4592498168349257 3.1928800344467163 3.1945636197924676 3.494301460683344 3.2851237095892412 3.407441571354866 4.268817223608492 5.2909807786345482 3.3774987906217566 3.0669307038187981 3.4662919938564301 3.7483851984143257
leaf_count=19 22 22 22 27 25 22 20 19 21 19 20 27 33 20 20 20 22
internal_value=-1.22743e-05 0.00175135 -0.000956278 -0.030339 0.00384969 -0.000327721 0.0318277 -0.00523172 -0.000149606 0.0122306 -0.0303153 -0.00519783 0.0475383 -0.0192514 -0.0364859 -0.00522549 -0.00340232
internal_weight=66.3677 63.0526 59.2285 8.32587 50.9026 46.169 6.10946 40.0596 36.6003 25.9502 10.6501 17.3741 8.5761 14.1795 10.802 7.73511 7.15583
internal_count=400 381 359 49 310 285 42 243 221 158 63 106 52 87 67 47 42
is_linear=0
shrinkage=0.1


Tree=49
num_leaves=17
num_cat=0
split_feature=6 8 8 9 4 4 8 5 7 7 9 1 0 0 2 6
split_gain=0.417757 1.4892 0.710115 1.66281 1.53665 2.01734 1.29325 2.98604 2.40639 1.63052 2.24486 1.24685 1.18332 0.94322 2.65793 0.893522
threshold=0.88805681592044705 0.45358770225084882 0.50641047488438651 0.12049617931005314 0.36927569660277004 0.50825084380932617 0.62513528921250849 0.73074166817150144 0.68957211566543897 0.72790289609619641 0.60422948106720731 0.52539254171039362 0.38406149591193289 0.56597231661719405 0.4803210902016869 0.64137396088053245
decision_type=2 2 2 2 2 2 2 2 2 2 2 2 2 2 2 2
left_child=2 -2 3 -1 15 -6 8 9 -4 10 12 -9 -8 14 -7 -5
right_child=1 -3 6 4 5 13 7 11 -10 -11 -12 -13 -14 -15 -16 -17
leaf_value=0.077433872336131485 -0.059432424994194794 0.028640008164166338 -0.093740393652842674 0.012325729290301107 -0.0809061283505874 0.043002825163550307 0.069790390786086925 -0.005113172972249687 0.020547965030609371 -0.019380960213747838 0.12579806952435768 -0.090955589459856878 -0.017089675503283185 0.041477123145584494 -0.068539326008325061 0.075018683554887111
leaf_weight=3.5972432792186764 4.4783649966120711 3.3605412766337395 4.2367198690772083 5.8010121844708937 3.5005457252264049 4.1107154637575132 2.7962061688303965 3.2505541592836371 3.259808748960495 4.3368527442216864 3.0179203525185585 3.5290370658040047 3.5681949183344841 4.5268010571598998 4.4478264898061752 3.7383991330862045
leaf_count=23 25 20 25 36 21 23 20 22 20 24 20 21 22 28 27 23
internal_value=-1.46468e-05 -0.0216757 0.00292724 0.0136921 0.00491539 -0.0134775 -0.0085018 0.00449583 -0.044043 0.0313259 0.0547644 -0.0497974 0.0210812 0.00456083 -0.014965 0.0368945
internal_weight=65.5567 7.83891 57.7178 29.7225 26.1253 16.5859 27.9953 20.4988 7.49653 13.7192 9.38232 6.77959 6.3644 13.0853 8.55854 9.53941
internal_count=400 45 355 181 158 99 174 129 45 86 62 43 42 78 50 59
is_linear=0
shrinkage=0.1


Tree=50
num_leaves=16
num_cat=0
split_feature=4 7 7 5 5 8 1 8 1 9 8 8 8 4 3
split_gain=0.367715 1.34494 0.729147 1.53577 1.75257 2.93574 2.2507 2.68654 1.09911 1.27242 0.993839 1.30711 1.27942 1.16906 0.602989
threshold=0.84294744892608087 0.65368318456875973 0.69544519799354954 0.10939948439628684 0.6783056936750913 0.62513528921250849 0.36371118587370832 0.51157997126399468 0.55743384461104017 0.41510847763315017 0.79096930569607382 0.45358770225084882 0.21415279602336659 0.53429465025990208 0.26090919808588636
decision_type=2 2 2 2 2 2 2 2 2 2 2 2 2 2 2
left_child=2 14 3 -1 5 8 -6 -8 9 -5 11 12 -4 -13 -2
right_child=1 -3 10 4 6 -7 7 -9 -10 -11 -12 13 -14 -15 -16
leaf_value=0.043979845729158272 0.0069121036309914632 -0.033951316068785868 0.04905576040600932 -0.13616542264334111 0.060285020587562771 0.022874667899860087 0.03217020680227918 -0.093347325445553686 -0.023004082508141052 -0.056533936242972538 -0.03540414818746742 0.091129603796704595 -0.032831835931106133 0.013294529861906774 0.063264654914789817
leaf_weight=4.2045463472604743 3.2662135586142522 3.638329453766346 2.9008745923638397 3.2846612259745651 4.9695392996072751 5.1070864871144286 3.5473426505923271 3.283767007291317 3.842860370874404 5.1569798290729523 3.6577884778380385 3.846178673207759 5.5745181180536747 3.8726419731974602 4.5355618447065353
leaf_count=26 20 21 19 21 32 37 21 21 23 31 22 23 33 22 28
internal_value=-8.18416e-06 0.0162578 -0.00350281 -0.0125248 -0.0206631 -0.0408462 0.00908227 -0.028167 -0.0673371 -0.0875187 0.0116748 0.0223085 -0.00480415 0.0520786 0.0396727
internal_weight=64.6889 11.4401 53.2488 33.3968 29.1922 17.3916 11.8006 6.83111 12.2845 8.44164 19.852 16.1942 8.47539 7.71882 7.80178
internal_count=400 69 331 212 186 112 74 42 75 52 119 97 52 45 48
is_linear=0
shrinkage=0.1


Tree=51
num_leaves=17
num_cat=0
split_feature=1 9 5 9 5 3 7 6 7 1 7 1 6 2 3 4
split_gain=0.326711 1.03936 0.964959 0.80252 0.80545 1.88797 1.74091 1.24881 1.38531 1.25974 1.21367 1.91248 1.27056 1.06255 0.902706 0.389267
threshold=0.13526845763506176 0.90677449295678547 0.65297566358805348 0.82295365725009184 0.23718263592202152 0.66155960034320238 0.047869003610584777 0.10978271163293681 0.12842736375410171 0.83164911473151482 0.30545965678681958 0.34813835057439985 0.82249829087486714 0.61998227840952291 0.65558721121733909 0.46335023528826597
decision_type=2 2 2 2 2 2 2 2 2 2 2 2 2 2 2 2
left_child=2 3 -1 4 5 13 -6 -8 -9 10 -10 -12 14 -2 15 -13
right_child=1 -3 -4 -5 6 -7 7 8 9 -11 11 12 -14 -15 -16 -17
leaf_value=-0.0070515545825170431 0.098189611210511368 0.037844080733724507 0.06255713791599371 -0.04823379208793982 -0.10467732205159611 -0.031956465406691628 -0.060544180595526867 0.07627103540850258 -0.062709169522926891 0.051848522996633353 0.044063069039244784 -0.055953634921821316 -0.077911399302031767 0.017789398753260171 0.03215224026969684 -0.0048159199029094435
leaf_weight=5.519833888858555 2.9488608539104444 5.6357327476143828 3.1155807860195637 4.4018714204430571 1.876514010131358 4.2449432164430618 3.6705924645066252 2.27541705220938 4.1036823466420236 3.3946160078048697 5.9824735708534744 2.9708761200308782 3.2947518005967131 3.713975764811039 3.7800173759460449 2.9833706915378571
leaf_count=37 19 33 24 26 12 25 22 13 27 21 36 20 20 21 24 20
internal_value=-2.6586e-05 -0.00285246 0.0180626 -0.00747264 -0.00350657 0.0201657 -0.0110276 -0.00561295 0.00139169 -0.00503543 -0.0133892 -0.00274337 -0.0242353 0.0533732 -0.00606753 -0.0303311
internal_weight=63.9131 55.2777 8.63541 49.642 45.2401 10.9078 34.3323 32.4558 28.7852 26.5098 23.1152 19.0115 13.029 6.66284 9.73426 5.95425
internal_count=400 339 61 306 280 65 215 203 181 168 147 120 84 40 64 40
is_linear=0
shrinkage=0.1


Tree=52
num_leaves=16
num_cat=0
split_feature=6 6 6 8 6 0 1 4 6 6 6 7 3 9 3
split_gain=0.365913 1.66076 0.521138 0.579421 0.585678 0.620577 1.00427 0.883209 1.1673 1.25369 1.75792 1.48773 1.82016 0.756855 0.474816
threshold=0.94836571001854664 0.90549748010494147 0.035275419839718498 0.092904907283102481 0.088007730521253671 0.086449247153459377 0.043274163202596368 0.20536771827279396 0.23914837719779972 0.43464478265172224 0.53871946459080144 0.70061938682764191 0.37927341165831618 0.45894820510109979 0.61022372342409248
decision_type=2 2 2 2 2 2 2 2 2 2 2 2 2 2 2
left_child=1 2 -1 -4 -5 -6 -7 -8 13 14 -11 12 -12 -9 -10
right_child=-2 -3 3 4 5 6 7 8 9 10 11 -13 -14 -15 -16
leaf_value=-0.041553425921228154 0.032715055525271118 -0.068345636062984924 0.043684944362879841 0.042519081409489401 -0.032713624688116491 0.07294483838037924 0.035566317288126946 -0.0022587921006447897 -0.07417540212792223 0.055320360634389443 0.060224589154128996 -0.059174099213806168 -0.028124249793153318 0.065552052514652806 -0.023798244967787117
leaf_weight=2.577950917184352 3.2386224195361129 3.5289243608713141 3.5216883495450011 3.2896520271897307 5.4931437447667113 1.9588326290249813 5.8209036216139785 3.3395963907241812 3.983877785503867 4.1499148234725025 3.7520374804735166 5.5969101488590232 6.1608933731913567 3.2455150783061981 3.5275648310780525
leaf_count=16 18 21 23 18 32 19 39 22 25 27 25 35 39 20 21
internal_value=-2.52811e-05 -0.00179406 0.00236868 0.00447173 0.00172729 -0.00112606 0.0030514 -0.000407903 -0.00661126 -0.0157659 -0.00248848 -0.0179562 0.00531572 0.0311622 -0.050517
internal_weight=63.186 59.9474 56.4185 53.8405 50.3188 47.0292 41.536 39.5772 33.7563 27.1712 19.6598 15.5098 9.91293 6.58511 7.51144
internal_count=400 382 361 345 322 304 272 253 214 172 126 99 64 42 46
is_linear=0
shrinkage=0.1


Tree=53
num_leaves=16
num_cat=0
split_feature=4 7 8 4 4 3 8 9 3 6 1 1 3 7 7
split_gain=0.356309 1.14992 1.26199 0.734399 0.923152 0.977358 1.16744 1.24417 1.02604 1.46215 1.22297 1.01091 0.795252 0.84178 0.775697
threshold=0.84294744892608087 0.38052283017144406 0.48832870189918581 0.77683147939740782 0.67108617243814717 0.82156864118547135 0.7268264319190052 0.82295365725009184 0.38531443634895957 0.4169566161187252 0.46880504763063935 0.52539254171039362 0.49528901785253793 0.60601607969198634 0.43201709988556009
decision_type=2 2 2 2 2 2 2 2 2 2 2 2 2 2 2
left_child=3 -2 -3 4 5 6 7 8 9 -1 -11 -8 -10 -14 -7
right_child=1 2 -4 -5 -6 14 11 -9 12 10 -12 -13 13 -15 -16
leaf_value=-0.05504619256528645 0.055854806814429114 0.035417733652955738 -0.051676554483730056 -0.039020095136329869 0.038132974627274295 -0.005362718641806867 -0.0057614732670144336 -0.048250304653248831 0.077485975332011681 0.059166915805746526 -0.022969553835199413 -0.072437437789174552 0.052748755113449002 -0.020381499702096736 0.066651369065529611
leaf_weight=4.4262555688619667 4.4115492627024633 3.1932031139731407 3.4733700156211853 5.2350171506404868 5.7125774994492522 2.8480513282120219 4.1978946141898614 4.4510049521923056 2.9676152542233449 3.6072528585791588 3.6440194547176361 4.961393877863884 3.0260462909936905 3.2801953703165054 3.1501416340470314
leaf_count=30 28 21 20 33 36 20 27 24 19 25 22 33 20 22 20
internal_value=-2.046e-05 0.0162492 -0.00995951 -0.0035197 0.000496622 -0.0048042 -0.011271 -0.000234974 0.00996562 -0.00975549 0.0178905 -0.0418784 0.0347982 0.01471 0.0324578
internal_weight=62.5856 11.0781 6.66657 51.5075 46.2724 40.5599 34.5617 25.4024 20.9514 11.6775 7.25127 9.15929 9.27386 6.30624 5.99819
internal_count=400 69 41 331 298 262 222 162 138 77 47 60 61 42 40
is_linear=0
shrinkage=0.1


Tree=54
num_leaves=16
num_cat=0
split_feature=3 3 4 2 4 5 0 0 4 4 0 7 5 6 6
split_gain=0.3793 0.651634 0.706379 0.793537 1.27416 2.15466 1.01749 1.33788 1.33584 2.15635 0.997983 0.937681 0.906725 1.46351 0.665426
threshold=0.036553139259122576 0.14490308581059011 0.079343284400363159 0.83823081895430962 0.73575006738226911 0.42153766305424273 0.85688215082529873 0.68658163473048339 0.51578026393838261 0.4228088922530886 0.21458634647068961 0.40184701412122015 0.26634261708832763 0.43698058320165867 0.53871946459080144
decision_type=2 2 2 2 2 2 2 2 2 2 2 2 2 2 2
left_child=-1 -2 -3 4 6 -6 7 8 9 12 -10 -5 -4 -14 -7
right_child=1 2 3 11 5 14 -8 -9 10 -11 -12 -13 13 -15 -16
leaf_value=-0.033833430056995323 0.033869371156578863 0.047825360096685303 -0.058002204776444993 -0.070123665805549587 -0.018550334294188339 0.092122823056973335 0.031640074861629106 -0.067912086316505027 -0.0018581432128761033 0.080126611899255351 -0.080403634384845421 -0.0011476105521524625 -0.044448163372245122 0.046114253343237099 0.03146343938408179
leaf_weight=3.1483391150832167 5.7180259972810736 2.7363802269101134 3.0666657835245221 3.7030292078852645 5.7546650618314725 3.818163126707077 4.8125204741954795 4.5027359575033179 2.9561370611190787 3.3302554115653029 3.5726174935698509 4.2133528813719749 3.1507924124598503 4.114846795797348 3.4357563704252243
leaf_count=19 39 21 21 23 36 24 27 29 19 20 23 26 23 28 22
internal_value=-1.59836e-05 0.00179207 -0.00165774 -0.00434265 0.00107017 0.0271428 -0.0104245 -0.0186223 -0.00763048 0.01015 -0.0448392 -0.0334124 -0.0124045 0.00684126 0.063392
internal_weight=62.0343 58.8859 53.1679 50.4315 42.5152 13.0086 29.5066 24.6941 20.1913 13.6626 6.52875 7.91638 10.3323 7.26564 7.25392
internal_count=400 381 342 321 272 82 190 163 134 92 42 49 72 51 46
is_linear=0
shrinkage=0.1


Tree=55
num_leaves=16
num_cat=0
split_feature=6 6 0 5 8 7 1 1 0 8 1 0 0 6 2
split_gain=0.409891 0.464765 0.534328 1.29287 1.60815 2.11077 1.25265 1.02999 0.927034 1.69117 1.28978 1.56217 1.26883 1.1248 0.530778
threshold=0.035275419839718498 0.088007730521253671 0.4145183693182054 0.73074166817150144 0.60396717017218449 0.74435206642903451 0.55743384461104017 0.42076421630531574 0.47504734864070891 0.13766949750765942 0.80312471495058502 0.86003120022605584 0.80293098987253897 0.44457167256929342 0.55624774651432929
decision_type=2 2 2 2 2 2 2 2 2 2 2 2 2 2 2
left_child=-1 -2 3 4 5 6 -3 -5 -4 -10 11 12 13 -11 -15
right_child=1 2 8 7 -6 -7 -8 -9 9 10 -12 -13 -14 14 -16
leaf_value=-0.039409005691980574 0.038529233226702778 -0.069668619290342473 0.055647903339294896 -0.011710535277665361 0.054789974895421693 0.040612030881672451 0.0027537133207069147 -0.093477048953794079 0.068459734650348505 -0.042113576367809664 -0.056083614762079265 0.048516913555144148 -0.072776995113328441 0.056510583423018956 5.5380013511400957e-05
leaf_weight=2.5319376662373534 3.2350778952240935 5.920677371323114 3.6633317247033146 3.2064942084252825 4.3866760917007914 4.7487655617296687 4.0029838383197784 2.9652303159236908 3.3490452915430096 3.7583427354693466 4.4320911020040503 5.5378144569694987 2.9312892556190482 3.1061345152556896 3.5902560576796532
leaf_count=16 18 39 23 20 34 32 25 21 21 26 27 34 20 21 23
internal_value=-1.24531e-05 0.00168298 -0.000460945 -0.011216 0.00166537 -0.0142175 -0.0404551 -0.0509956 0.00847469 0.00200357 -0.00752569 0.00384691 -0.0146331 0.0016692 0.0262422
